SVM-light Version V6.02
4 # kernel type
3 # kernel parameter -d 
1 # kernel parameter -g 
1 # kernel parameter -s 
1 # kernel parameter -r 
empty# kernel parameter -u 
20 # highest feature index 
64757 # number of training documents 
3 # number of support vectors plus 1 
nan # threshold b, each following line is a SV (starting with alpha*y)
-inf 1:0.047400001 2:0.00089999998 3:0.00030000001 4:0.00030000001 5:0.0066999998 6:0.00089999998 7:0.00089999998 8:0.00030000001 9:0.00089999998 10:0.99970001 11:0.73110002 12:0.00089999998 13:0.73110002 14:0.047400001 15:0.047400001 16:0.0024999999 17:0.0066999998 18:0.017999999 19:0.0024999999 20:0.73110002 #
inf 1:0.0066999998 2:0.047400001 3:0.00089999998 4:0.017999999 5:0.00030000001 6:0.0024999999 7:0.0066999998 8:0.5 9:0.0024999999 10:0.0024999999 11:0.017999999 12:0.0024999999 13:0.0066999998 14:0.047400001 15:0.99970001 16:0.0066999998 17:0.0066999998 18:0.5 19:0.0066999998 20:0.00089999998 #
