SVM-light Version V6.02
4 # kernel type
3 # kernel parameter -d 
1 # kernel parameter -g 
1 # kernel parameter -s 
1 # kernel parameter -r 
empty# kernel parameter -u 
20 # highest feature index 
81195 # number of training documents 
3 # number of support vectors plus 1 
nan # threshold b, each following line is a SV (starting with alpha*y)
-inf 1:0.047400001 2:0.73110002 3:0.1192 4:0.017999999 5:0.26890001 6:0.1192 7:0.26890001 8:0.0066999998 9:0.1192 10:0.98199999 11:0.5 12:0.1192 13:0.26890001 14:0.1192 15:0.0066999998 16:0.26890001 17:0.5 18:0.0066999998 19:0.047400001 20:0.98199999 #
inf 1:0.017999999 2:0.0066999998 3:0.0066999998 4:0.0024999999 5:0.5 6:0.017999999 7:0.0066999998 8:0.0024999999 9:0.0066999998 10:0.26890001 11:0.9975 12:0.0066999998 13:0.26890001 14:0.1192 15:0.0066999998 16:0.0066999998 17:0.047400001 18:0.5 19:0.017999999 20:0.26890001 #
