SVM-light Version V6.02
3 # kernel type
3 # kernel parameter -d 
1 # kernel parameter -g 
1 # kernel parameter -s 
1 # kernel parameter -r 
empty# kernel parameter -u 
20 # highest feature index 
87210 # number of training documents 
4093 # number of support vectors plus 1 
792.99968 # threshold b, each following line is a SV (starting with alpha*y)
-4.2793839103288719982742804859299 1:0.047400001 2:0.73110002 3:0.1192 4:0.017999999 5:0.26890001 6:0.1192 7:0.26890001 8:0.0066999998 9:0.1192 10:0.98199999 11:0.5 12:0.1192 13:0.26890001 14:0.1192 15:0.0066999998 16:0.26890001 17:0.5 18:0.0066999998 19:0.047400001 20:0.98199999 #
4.2793839103288719982742804859299 1:0.017999999 2:0.0066999998 3:0.0066999998 4:0.0024999999 5:0.5 6:0.017999999 7:0.0066999998 8:0.0024999999 9:0.0066999998 10:0.26890001 11:0.9975 12:0.0066999998 13:0.26890001 14:0.1192 15:0.0066999998 16:0.0066999998 17:0.047400001 18:0.5 19:0.017999999 20:0.26890001 #
-4.2793839103288719982742804859299 1:9.9999997e-05 2:9.9999997e-05 3:0 4:0 5:9.9999997e-05 6:9.9999997e-05 7:0 8:9.9999997e-05 9:9.9999997e-05 10:9.9999997e-05 11:0.00030000001 12:0 13:0.00030000001 14:0.0024999999 15:0 16:9.9999997e-05 17:9.9999997e-05 18:1 19:0.017999999 20:0 #
4.2793839103288719982742804859299 1:0.1192 2:0.99330002 3:0.73110002 4:0.99330002 5:0.0024999999 6:0.1192 7:0.73110002 8:0.047400001 9:0.26890001 10:0.0024999999 11:0.0024999999 12:0.73110002 13:0.0066999998 14:0.0024999999 15:0.0066999998 16:0.26890001 17:0.5 18:0.0024999999 19:0.0066999998 20:0.0066999998 #
-4.2793839103288719982742804859299 1:0.0024999999 2:9.9999997e-05 3:0.047400001 4:0.99970001 5:0.99970001 6:0.00030000001 7:0.0066999998 8:0.00089999998 9:9.9999997e-05 10:0 11:0.00030000001 12:0.00030000001 13:0 14:0 15:9.9999997e-05 16:0.0024999999 17:0.00030000001 18:0 19:0.00089999998 20:9.9999997e-05 #
4.2793839103288719982742804859299 1:0.0024999999 2:0.00089999998 3:0.00089999998 4:0.00030000001 5:0.0066999998 6:0.0024999999 7:0.00089999998 8:0.00089999998 9:0.0024999999 10:0.9975 11:0.047400001 12:0.00089999998 13:0.1192 14:0.047400001 15:0.00089999998 16:0.0024999999 17:0.0066999998 18:1 19:0.1192 20:0.1192 #
-4.2793839103288719982742804859299 1:0.1192 2:0.9526 3:0.0066999998 4:0.0066999998 5:0.0066999998 6:0.047400001 7:0.017999999 8:0.0066999998 9:0.73110002 10:0.9526 11:0.88080001 12:0.26890001 13:0.88080001 14:0.5 15:0.0066999998 16:0.1192 17:0.1192 18:0.017999999 19:0.73110002 20:0.88080001 #
4.2793839103288719982742804859299 1:0.26890001 2:0.88080001 3:0.73110002 4:0.99330002 5:0.00089999998 6:0.047400001 7:0.9526 8:0.0066999998 9:0.99330002 10:0.00089999998 11:0.0024999999 12:0.1192 13:0.0024999999 14:0.00089999998 15:0.0024999999 16:0.1192 17:0.047400001 18:0.0066999998 19:0.017999999 20:0.00089999998 #
-4.2793839103288719982742804859299 1:0.047400001 2:0.98199999 3:0.017999999 4:0.0066999998 5:0.0066999998 6:0.1192 7:0.017999999 8:0.0066999998 9:0.9975 10:0.98199999 11:0.73110002 12:0.047400001 13:0.26890001 14:0.73110002 15:0.0066999998 16:0.26890001 17:0.1192 18:0.0066999998 19:0.5 20:0.5 #
4.2793839103288719982742804859299 1:0.0066999998 2:0.0024999999 3:0.00089999998 4:0.00089999998 5:0.99330002 6:0.0024999999 7:0.0024999999 8:0.00089999998 9:0.0024999999 10:0.1192 11:0.99330002 12:0.0024999999 13:0.99330002 14:0.26890001 15:0.0024999999 16:0.0066999998 17:0.017999999 18:0.98199999 19:0.1192 20:0.047400001 #
-4.2793839103288719982742804859299 1:0.047400001 2:0.1192 3:0.5 4:0.1192 5:0.0066999998 6:0.017999999 7:0.5 8:0.99910003 9:0.017999999 10:0.0024999999 11:0.0024999999 12:0.047400001 13:0.0066999998 14:0.0066999998 15:0.0066999998 16:0.047400001 17:0.017999999 18:0.88080001 19:0.0066999998 20:0.0066999998 #
4.2793839103288719982742804859299 1:0.73110002 2:0.98199999 3:0.5 4:0.99330002 5:0.00089999998 6:0.5 7:0.88080001 8:0.047400001 9:0.73110002 10:0.00089999998 11:0.00089999998 12:0.047400001 13:0.0024999999 14:0.0024999999 15:0.0024999999 16:0.1192 17:0.047400001 18:0.00089999998 19:0.017999999 20:0.0024999999 #
-4.2793839103288719982742804859299 1:0.00089999998 2:0.00030000001 3:0.017999999 4:0.99910003 5:0.99989998 6:0.00089999998 7:0.017999999 8:0.0024999999 9:0.00030000001 10:9.9999997e-05 11:9.9999997e-05 12:0.00030000001 13:9.9999997e-05 14:9.9999997e-05 15:0.00030000001 16:0.0024999999 17:0.00089999998 18:0 19:9.9999997e-05 20:0.00030000001 #
4.2793839103288719982742804859299 1:0.017999999 2:0.0066999998 3:0.00089999998 4:0.00089999998 5:0.73110002 6:0.0024999999 7:0.0024999999 8:0.0066999998 9:0.00089999998 10:0.98199999 11:0.88080001 12:0.0024999999 13:0.88080001 14:0.5 15:0.0024999999 16:0.017999999 17:0.047400001 18:0.99970001 19:0.26890001 20:0.9526 #
4.2793839103288719982742804859299 1:0.5 2:0.73110002 3:0.9526 4:0.99330002 5:0.0024999999 6:0.88080001 7:0.73110002 8:0.047400001 9:0.98199999 10:0.0024999999 11:0.0024999999 12:0.1192 13:0.0066999998 14:0.0024999999 15:0.017999999 16:0.26890001 17:0.047400001 18:0.0024999999 19:0.017999999 20:0.0066999998 #
-4.2793839103288719982742804859299 1:0.017999999 2:0.73110002 3:0.0066999998 4:0.0024999999 5:0.0066999998 6:0.1192 7:0.017999999 8:0.00089999998 9:0.73110002 10:0.73110002 11:0.99330002 12:0.047400001 13:0.5 14:0.1192 15:0.0024999999 16:0.0066999998 17:0.017999999 18:0.0066999998 19:0.1192 20:0.26890001 #
-4.2793839103288719982742804859299 1:0.047400001 2:0.88080001 3:0.0024999999 4:0.0024999999 5:0.017999999 6:0.017999999 7:0.0024999999 8:0.0024999999 9:0.73110002 10:0.9526 11:0.5 12:0.017999999 13:0.5 14:0.99910003 15:0.0024999999 16:0.047400001 17:0.26890001 18:0.017999999 19:0.1192 20:0.26890001 #
4.2793839103288719982742804859299 1:0.047400001 2:0.0066999998 3:0.00089999998 4:0.00089999998 5:0.73110002 6:0.0066999998 7:0.0066999998 8:0.00089999998 9:0.0024999999 10:0.73110002 11:0.99330002 12:0.00089999998 13:0.5 14:0.98199999 15:0.00089999998 16:0.0024999999 17:0.017999999 18:0.98199999 19:0.5 20:0.88080001 #
-4.2793839103288719982742804859299 1:0.0024999999 2:9.9999997e-05 3:0.047400001 4:0.99970001 5:0.99970001 6:0.0024999999 7:0.0066999998 8:0.00089999998 9:0.00030000001 10:0 11:0.00030000001 12:0.00030000001 13:0 14:0 15:9.9999997e-05 16:0.0024999999 17:0.00030000001 18:0 19:0.00089999998 20:9.9999997e-05 #
4.2793839103288719982742804859299 1:0.1192 2:0.88080001 3:0.99330002 4:0.88080001 5:0.017999999 6:0.5 7:0.88080001 8:0.88080001 9:0.5 10:0.0024999999 11:0.0066999998 12:0.73110002 13:0.0066999998 14:0.0024999999 15:0.0066999998 16:0.73110002 17:0.047400001 18:0.00089999998 19:0.0066999998 20:0.0024999999 #
4.2793839103288719982742804859299 1:0.017999999 2:0.0024999999 3:0.0024999999 4:0.00089999998 5:0.99330002 6:0.0066999998 7:0.00089999998 8:0.0066999998 9:0.0066999998 10:0.1192 11:0.73110002 12:0.0024999999 13:0.73110002 14:0.99970001 15:0.00089999998 16:0.0066999998 17:0.1192 18:0.73110002 19:0.88080001 20:0.047400001 #
-4.2793839103288719982742804859299 1:0.1192 2:0.047400001 3:0.73110002 4:0.017999999 5:0.017999999 6:0.017999999 7:0.017999999 8:0.99910003 9:0.1192 10:0.0024999999 11:0.0024999999 12:0.017999999 13:0.0066999998 14:0.0066999998 15:0.0066999998 16:0.5 17:0.017999999 18:0.9526 19:0.0066999998 20:0.0024999999 #
-4.2793839103288719982742804859299 1:0.1192 2:0.9526 3:0.017999999 4:0.0066999998 5:0.017999999 6:0.1192 7:0.017999999 8:0.0066999998 9:0.1192 10:0.98199999 11:0.9526 12:0.5 13:0.88080001 14:0.26890001 15:0.017999999 16:0.1192 17:0.1192 18:0.017999999 19:0.26890001 20:0.73110002 #
4.2793839103288719982742804859299 1:0.1192 2:0.88080001 3:0.98199999 4:0.99330002 5:0.0024999999 6:0.9526 7:0.9526 8:0.017999999 9:0.88080001 10:0.0066999998 11:0.0024999999 12:0.26890001 13:0.047400001 14:0.0024999999 15:0.0066999998 16:0.047400001 17:0.047400001 18:0.00089999998 19:0.017999999 20:0.0066999998 #
-4.2793839103288719982742804859299 1:0.0024999999 2:9.9999997e-05 3:0.047400001 4:0.99970001 5:0.99970001 6:0.0024999999 7:0.0066999998 8:0.00089999998 9:0.00030000001 10:0 11:0.00030000001 12:0.00030000001 13:0 14:0 15:9.9999997e-05 16:0.0024999999 17:0.00030000001 18:0 19:0.00089999998 20:9.9999997e-05 #
4.2793839103288719982742804859299 1:0.1192 2:0.0024999999 3:0.0024999999 4:0.0024999999 5:0.9526 6:0.0066999998 7:0.0024999999 8:0.017999999 9:0.0066999998 10:0.99330002 11:0.1192 12:0.0024999999 13:0.98199999 14:0.5 15:0.0024999999 16:0.0066999998 17:0.017999999 18:0.99970001 19:0.9526 20:0.73110002 #
-4.2793839103288719982742804859299 1:0.017999999 2:0.9526 3:0.0066999998 4:0.0024999999 5:0.017999999 6:0.017999999 7:0.0066999998 8:0.0024999999 9:0.73110002 10:0.9526 11:0.5 12:0.017999999 13:0.26890001 14:0.99330002 15:0.0024999999 16:0.017999999 17:0.1192 18:0.047400001 19:0.98199999 20:0.73110002 #
4.2793839103288719982742804859299 1:0.047400001 2:0.99910003 3:0.9526 4:0.9526 5:0.00089999998 6:0.1192 7:0.26890001 8:0.0066999998 9:0.26890001 10:0.00089999998 11:0.00089999998 12:0.5 13:0.0024999999 14:0.00089999998 15:0.0024999999 16:0.017999999 17:0.017999999 18:0.00089999998 19:0.0024999999 20:0.00089999998 #
-4.2793839103288719982742804859299 1:0.0024999999 2:0.00030000001 3:0.047400001 4:0.99970001 5:0.99970001 6:0.0024999999 7:0.0066999998 8:0.0024999999 9:0.00030000001 10:9.9999997e-05 11:9.9999997e-05 12:0.00030000001 13:9.9999997e-05 14:0 15:0.00030000001 16:0.0066999998 17:0.00089999998 18:0 19:0.00089999998 20:9.9999997e-05 #
4.2793839103288719982742804859299 1:0.047400001 2:0.0066999998 3:0.0024999999 4:0.0024999999 5:0.98199999 6:0.0066999998 7:0.0066999998 8:0.0066999998 9:0.0066999998 10:0.9526 11:0.88080001 12:0.0066999998 13:0.73110002 14:0.98199999 15:0.0066999998 16:0.017999999 17:0.26890001 18:0.9526 19:0.5 20:0.9526 #
4.2793839103288719982742804859299 1:0.047400001 2:0.73110002 3:0.73110002 4:0.9975 5:0.00089999998 6:0.5 7:0.9526 8:0.017999999 9:0.26890001 10:0.00089999998 11:0.00089999998 12:0.9526 13:0.0024999999 14:0.00089999998 15:0.017999999 16:0.1192 17:0.017999999 18:0.00030000001 19:0.0024999999 20:0.00089999998 #
-4.2793839103288719982742804859299 1:0.017999999 2:0.9526 3:0.0066999998 4:0.0024999999 5:0.017999999 6:0.017999999 7:0.0066999998 8:0.0024999999 9:0.73110002 10:0.9526 11:0.5 12:0.017999999 13:0.26890001 14:0.99330002 15:0.0024999999 16:0.017999999 17:0.1192 18:0.047400001 19:0.98199999 20:0.5 #
-4.2793839103288719982742804859299 1:0.73110002 2:0.017999999 3:0.99330002 4:0.1192 5:0.0066999998 6:0.017999999 7:0.1192 8:0.99330002 9:0.017999999 10:0.0024999999 11:0.0024999999 12:0.017999999 13:0.0066999998 14:0.0066999998 15:0.017999999 16:0.26890001 17:0.26890001 18:0.73110002 19:0.0066999998 20:0.0066999998 #
4.2793839103288719982742804859299 1:0.047400001 2:0.0066999998 3:0.0024999999 4:0.0024999999 5:0.88080001 6:0.017999999 7:0.0024999999 8:0.0066999998 9:0.0024999999 10:0.98199999 11:0.99330002 12:0.017999999 13:0.5 14:0.5 15:0.0024999999 16:0.0066999998 17:0.26890001 18:0.9526 19:0.26890001 20:0.73110002 #
4.2793839103288719982742804859299 1:0.047400001 2:0.9526 3:0.73110002 4:0.98199999 5:0.0024999999 6:0.73110002 7:0.9526 8:0.047400001 9:0.73110002 10:0.0066999998 11:0.017999999 12:0.88080001 13:0.0066999998 14:0.00089999998 15:0.047400001 16:0.047400001 17:0.1192 18:0.0066999998 19:0.017999999 20:0.017999999 #
-4.2793839103288719982742804859299 1:0.0066999998 2:0.98199999 3:0.017999999 4:0.0066999998 5:0.0066999998 6:0.73110002 7:0.017999999 8:0.0024999999 9:0.99330002 10:0.047400001 11:0.88080001 12:0.26890001 13:0.99910003 14:0.1192 15:0.0024999999 16:0.017999999 17:0.017999999 18:0.017999999 19:0.73110002 20:0.017999999 #
-4.2793839103288719982742804859299 1:0.0066999998 2:0.0024999999 3:0.017999999 4:0.9975 5:0.99989998 6:0.0066999998 7:0.73110002 8:0.0024999999 9:0.0024999999 10:0.0024999999 11:0.00089999998 12:0.0024999999 13:0.0024999999 14:0.00089999998 15:0.0024999999 16:0.0066999998 17:0.0066999998 18:0.00089999998 19:0.00089999998 20:0.0024999999 #
4.2793839103288719982742804859299 1:0.0024999999 2:0.0024999999 3:0.00089999998 4:0.00089999998 5:0.73110002 6:0.0024999999 7:0.00089999998 8:0.00089999998 9:0.0066999998 10:0.5 11:0.1192 12:0.047400001 13:0.26890001 14:0.99910003 15:0.00089999998 16:0.0066999998 17:0.0024999999 18:0.88080001 19:0.9975 20:0.73110002 #
-4.2793839103288719982742804859299 1:0.017999999 2:0.9526 3:0.0066999998 4:0.0024999999 5:0.017999999 6:0.017999999 7:0.0066999998 8:0.0024999999 9:0.73110002 10:0.9526 11:0.5 12:0.017999999 13:0.26890001 14:0.99330002 15:0.0024999999 16:0.017999999 17:0.1192 18:0.047400001 19:0.98199999 20:0.5 #
4.2793839103288719982742804859299 1:0.047400001 2:0.9526 3:0.73110002 4:0.98199999 5:0.0024999999 6:0.73110002 7:0.9526 8:0.047400001 9:0.73110002 10:0.0066999998 11:0.017999999 12:0.88080001 13:0.0066999998 14:0.00089999998 15:0.047400001 16:0.047400001 17:0.1192 18:0.0066999998 19:0.017999999 20:0.017999999 #
-4.2793839103288719982742804859299 1:0.73110002 2:0.017999999 3:0.99330002 4:0.1192 5:0.0066999998 6:0.017999999 7:0.047400001 8:0.99330002 9:0.017999999 10:0.0024999999 11:0.0024999999 12:0.047400001 13:0.0066999998 14:0.0066999998 15:0.017999999 16:0.26890001 17:0.26890001 18:0.73110002 19:0.0066999998 20:0.0066999998 #
4.2793839103288719982742804859299 1:0.0024999999 2:0.0024999999 3:0.00089999998 4:0.00089999998 5:0.73110002 6:0.0024999999 7:0.00089999998 8:0.00089999998 9:0.0066999998 10:0.5 11:0.1192 12:0.047400001 13:0.26890001 14:0.99910003 15:0.00089999998 16:0.0066999998 17:0.0024999999 18:0.88080001 19:0.9975 20:0.73110002 #
-4.2793839103288719982742804859299 1:0.0066999998 2:0.0024999999 3:0.047400001 4:0.99970001 5:0.9526 6:0.0066999998 7:0.1192 8:0.0024999999 9:0.0066999998 10:0.00089999998 11:0.00030000001 12:0.017999999 13:0.00089999998 14:0.00030000001 15:0.0024999999 16:0.0066999998 17:0.0066999998 18:0.00030000001 19:0.00089999998 20:0.0024999999 #
4.2793839103288719982742804859299 1:0.1192 2:0.9526 3:0.5 4:0.9526 5:0.0066999998 6:0.1192 7:0.9526 8:0.0066999998 9:0.5 10:0.0024999999 11:0.0066999998 12:0.26890001 13:0.0024999999 14:0.0066999998 15:0.98199999 16:0.73110002 17:0.1192 18:0.00089999998 19:0.017999999 20:0.0066999998 #
-4.2793839103288719982742804859299 1:0.0066999998 2:0.9975 3:0.0066999998 4:0.0024999999 5:0.0024999999 6:0.017999999 7:0.017999999 8:0.00089999998 9:0.017999999 10:0.017999999 11:0.017999999 12:0.73110002 13:0.9526 14:0.99330002 15:0.00089999998 16:0.0066999998 17:0.047400001 18:0.0066999998 19:0.73110002 20:0.73110002 #
4.2793839103288719982742804859299 1:0.1192 2:0.017999999 3:0.0066999998 4:0.0066999998 5:0.9975 6:0.017999999 7:0.0066999998 8:0.017999999 9:0.0066999998 10:0.5 11:0.98199999 12:0.017999999 13:0.98199999 14:0.1192 15:0.0066999998 16:0.047400001 17:0.047400001 18:0.99330002 19:0.047400001 20:0.1192 #
-4.2793839103288719982742804859299 1:0.017999999 2:0.0024999999 3:0.017999999 4:0.99330002 5:1 6:0.0066999998 7:0.047400001 8:0.0066999998 9:0.0024999999 10:0.0066999998 11:0.0066999998 12:0.0066999998 13:0.0066999998 14:0.0024999999 15:0.0024999999 16:0.047400001 17:0.017999999 18:0.0024999999 19:0.0024999999 20:0.0066999998 #
4.2793839103288719982742804859299 1:0.047400001 2:0.88080001 3:0.5 4:0.9975 5:0.0024999999 6:0.26890001 7:0.73110002 8:0.88080001 9:0.1192 10:0.0024999999 11:0.0024999999 12:0.73110002 13:0.0066999998 14:0.0024999999 15:0.017999999 16:0.26890001 17:0.26890001 18:0.0024999999 19:0.0066999998 20:0.0066999998 #
-4.2793839103288719982742804859299 1:0.0066999998 2:0.9975 3:0.0066999998 4:0.0024999999 5:0.0024999999 6:0.017999999 7:0.017999999 8:0.00089999998 9:0.017999999 10:0.017999999 11:0.017999999 12:0.73110002 13:0.9526 14:0.99330002 15:0.00089999998 16:0.0066999998 17:0.047400001 18:0.0066999998 19:0.73110002 20:0.73110002 #
4.2793839103288719982742804859299 1:0.017999999 2:0.9526 3:0.73110002 4:0.9975 5:0.0024999999 6:0.26890001 7:0.5 8:0.017999999 9:0.1192 10:0.0024999999 11:0.0024999999 12:0.9526 13:0.0066999998 14:0.0024999999 15:0.017999999 16:0.047400001 17:0.017999999 18:0.0024999999 19:0.0066999998 20:0.0024999999 #
-4.2793839103288719982742804859299 1:0.1192 2:0.0024999999 3:0.5 4:0.047400001 5:0.00089999998 6:0.0066999998 7:0.0066999998 8:0.73110002 9:0.0024999999 10:0.00030000001 11:0.00089999998 12:0.0066999998 13:0.00089999998 14:0.0066999998 15:0.0024999999 16:0.99910003 17:0.1192 18:0.9526 19:0.1192 20:0.00089999998 #
4.2793839103288719982742804859299 1:0.047400001 2:0.017999999 3:0.017999999 4:0.0066999998 5:0.99330002 6:0.047400001 7:0.0066999998 8:0.1192 9:0.017999999 10:0.88080001 11:0.9526 12:0.017999999 13:0.73110002 14:0.9526 15:0.0066999998 16:0.047400001 17:0.047400001 18:0.9975 19:0.1192 20:0.88080001 #
-4.2793839103288719982742804859299 1:0.047400001 2:0.98199999 3:0.047400001 4:0.0066999998 5:0.0066999998 6:0.1192 7:0.047400001 8:0.0066999998 9:0.047400001 10:0.88080001 11:0.9526 12:0.9526 13:0.26890001 14:0.047400001 15:0.1192 16:0.017999999 17:0.1192 18:0.0066999998 19:0.047400001 20:0.26890001 #
4.2793839103288719982742804859299 1:0.1192 2:0.99330002 3:0.98199999 4:0.98199999 5:0.0024999999 6:0.047400001 7:0.1192 8:0.047400001 9:0.26890001 10:0.0024999999 11:0.0024999999 12:0.26890001 13:0.0066999998 14:0.0024999999 15:0.0066999998 16:0.88080001 17:0.047400001 18:0.0024999999 19:0.0066999998 20:0.047400001 #
-4.2793839103288719982742804859299 1:0.0066999998 2:0.0024999999 3:0.047400001 4:0.99970001 5:0.9526 6:0.017999999 7:0.1192 8:0.0066999998 9:0.017999999 10:0.00089999998 11:0.00089999998 12:0.0066999998 13:0.00089999998 14:0.00089999998 15:0.0066999998 16:0.047400001 17:0.0066999998 18:0.00030000001 19:0.00089999998 20:0.00089999998 #
4.2793839103288719982742804859299 1:0.017999999 2:0.0066999998 3:0.0066999998 4:0.0024999999 5:0.73110002 6:0.017999999 7:0.0066999998 8:0.0024999999 9:0.017999999 10:0.9526 11:0.98199999 12:0.0066999998 13:0.99330002 14:0.98199999 15:0.0066999998 16:0.017999999 17:0.047400001 18:0.73110002 19:0.5 20:0.5 #
-4.2793839103288719982742804859299 1:0.0066999998 2:0.9975 3:0.0066999998 4:0.0024999999 5:0.0024999999 6:0.017999999 7:0.017999999 8:0.00089999998 9:0.017999999 10:0.017999999 11:0.017999999 12:0.73110002 13:0.9526 14:0.99330002 15:0.00089999998 16:0.0066999998 17:0.047400001 18:0.0066999998 19:0.73110002 20:0.73110002 #
4.2793839103288719982742804859299 1:0.1192 2:0.88080001 3:0.88080001 4:0.98199999 5:0.0024999999 6:0.5 7:0.98199999 8:0.017999999 9:0.26890001 10:0.0024999999 11:0.0066999998 12:0.73110002 13:0.0066999998 14:0.0024999999 15:0.017999999 16:0.5 17:0.1192 18:0.017999999 19:0.0066999998 20:0.0066999998 #
-4.2793839103288719982742804859299 1:0.1192 2:0.0024999999 3:0.5 4:0.047400001 5:0.00089999998 6:0.0066999998 7:0.0066999998 8:0.73110002 9:0.0024999999 10:0.00030000001 11:0.00089999998 12:0.0066999998 13:0.00089999998 14:0.0066999998 15:0.0024999999 16:0.99910003 17:0.1192 18:0.9526 19:0.1192 20:0.00089999998 #
4.2793839103288719982742804859299 1:0.017999999 2:0.0066999998 3:0.0066999998 4:0.0024999999 5:0.73110002 6:0.017999999 7:0.0066999998 8:0.0024999999 9:0.017999999 10:0.9526 11:0.98199999 12:0.0066999998 13:0.99330002 14:0.98199999 15:0.0066999998 16:0.017999999 17:0.047400001 18:0.73110002 19:0.5 20:0.5 #
-4.2793839103288719982742804859299 1:0.017999999 2:0.99330002 3:0.0066999998 4:0.0024999999 5:0.047400001 6:0.26890001 7:0.017999999 8:0.0024999999 9:0.0066999998 10:0.98199999 11:0.88080001 12:0.73110002 13:0.5 14:0.047400001 15:0.017999999 16:0.0066999998 17:0.017999999 18:0.047400001 19:0.047400001 20:0.73110002 #
4.2793839103288719982742804859299 1:0.047400001 2:0.99330002 3:0.5 4:0.99330002 5:0.0024999999 6:0.73110002 7:0.26890001 8:0.1192 9:0.047400001 10:0.0024999999 11:0.0024999999 12:0.73110002 13:0.0066999998 14:0.0024999999 15:0.017999999 16:0.5 17:0.047400001 18:0.0024999999 19:0.0066999998 20:0.0024999999 #
-4.2793839103288719982742804859299 1:0.0066999998 2:0.0066999998 3:0.1192 4:0.99970001 5:0.9526 6:0.017999999 7:0.1192 8:0.0066999998 9:0.0066999998 10:0.00089999998 11:0.00089999998 12:0.017999999 13:0.00089999998 14:0.00089999998 15:0.0066999998 16:0.017999999 17:0.0066999998 18:0.00030000001 19:0.00089999998 20:0.00089999998 #
4.2793839103288719982742804859299 1:0.5 2:0.0024999999 3:0.017999999 4:0.00089999998 5:0.98199999 6:0.0066999998 7:0.0024999999 8:0.0024999999 9:0.0066999998 10:0.5 11:0.1192 12:0.0024999999 13:0.73110002 14:0.26890001 15:0.0024999999 16:0.017999999 17:0.1192 18:0.9975 19:0.017999999 20:0.9975 #
-4.2793839103288719982742804859299 1:0.017999999 2:0.99330002 3:0.0066999998 4:0.0024999999 5:0.047400001 6:0.26890001 7:0.017999999 8:0.0024999999 9:0.0066999998 10:0.98199999 11:0.88080001 12:0.73110002 13:0.5 14:0.047400001 15:0.017999999 16:0.0066999998 17:0.017999999 18:0.047400001 19:0.047400001 20:0.73110002 #
4.2793839103288719982742804859299 1:0.047400001 2:0.73110002 3:0.5 4:0.99330002 5:0.0066999998 6:0.73110002 7:0.98199999 8:0.5 9:0.26890001 10:0.0024999999 11:0.0066999998 12:0.88080001 13:0.0066999998 14:0.0024999999 15:0.017999999 16:0.26890001 17:0.1192 18:0.0024999999 19:0.0066999998 20:0.0066999998 #
-4.2793839103288719982742804859299 1:0.017999999 2:0.0066999998 3:0.047400001 4:0.99970001 5:0.9975 6:0.017999999 7:0.047400001 8:0.0066999998 9:0.047400001 10:0.00089999998 11:0.00089999998 12:0.0066999998 13:0.00089999998 14:0.00089999998 15:0.0024999999 16:0.017999999 17:0.0066999998 18:0.00030000001 19:0.00089999998 20:0.00089999998 #
4.2793839103288719982742804859299 1:0.047400001 2:0.0024999999 3:0.0024999999 4:0.0024999999 5:0.88080001 6:0.0066999998 7:0.0024999999 8:0.0024999999 9:0.047400001 10:0.26890001 11:0.88080001 12:0.0024999999 13:0.26890001 14:0.98199999 15:0.0066999998 16:0.017999999 17:0.017999999 18:0.5 19:0.99910003 20:0.88080001 #
-4.2793839103288719982742804859299 1:0.017999999 2:0.99330002 3:0.0066999998 4:0.0024999999 5:0.047400001 6:0.26890001 7:0.017999999 8:0.0024999999 9:0.0066999998 10:0.98199999 11:0.88080001 12:0.73110002 13:0.5 14:0.047400001 15:0.017999999 16:0.0066999998 17:0.017999999 18:0.047400001 19:0.047400001 20:0.73110002 #
4.2793839103288719982742804859299 1:0.1192 2:0.9526 3:0.9526 4:0.98199999 5:0.00089999998 6:0.98199999 7:0.88080001 8:0.047400001 9:0.047400001 10:0.00089999998 11:0.0024999999 12:0.5 13:0.047400001 14:0.00089999998 15:0.0024999999 16:0.5 17:0.017999999 18:0.00089999998 19:0.0024999999 20:0.00089999998 #
-4.2793839103288719982742804859299 1:0.017999999 2:0.0066999998 3:0.1192 4:0.99910003 5:0.9975 6:0.047400001 7:0.5 8:0.017999999 9:0.017999999 10:0.0024999999 11:0.0024999999 12:0.017999999 13:0.0024999999 14:0.0024999999 15:0.017999999 16:0.047400001 17:0.017999999 18:0.00089999998 19:0.0024999999 20:0.0066999998 #
4.2793839103288719982742804859299 1:0.047400001 2:0.0066999998 3:0.0024999999 4:0.0024999999 5:0.88080001 6:0.0066999998 7:0.0024999999 8:0.0024999999 9:0.047400001 10:0.1192 11:0.9526 12:0.0024999999 13:0.5 14:0.9526 15:0.0066999998 16:0.017999999 17:0.047400001 18:0.5 19:0.99910003 20:0.88080001 #
-4.2793839103288719982742804859299 1:0.017999999 2:0.99330002 3:0.0066999998 4:0.0024999999 5:0.047400001 6:0.26890001 7:0.017999999 8:0.0024999999 9:0.0066999998 10:0.98199999 11:0.88080001 12:0.73110002 13:0.5 14:0.047400001 15:0.017999999 16:0.0066999998 17:0.017999999 18:0.047400001 19:0.047400001 20:0.73110002 #
4.2793839103288719982742804859299 1:0.1192 2:0.9526 3:0.9526 4:0.98199999 5:0.00089999998 6:0.98199999 7:0.88080001 8:0.047400001 9:0.047400001 10:0.00089999998 11:0.0024999999 12:0.5 13:0.047400001 14:0.00089999998 15:0.0024999999 16:0.5 17:0.017999999 18:0.00089999998 19:0.0024999999 20:0.00089999998 #
-4.2793839103288719982742804859299 1:0.047400001 2:0.0024999999 3:0.88080001 4:0.0066999998 5:0.0024999999 6:0.0066999998 7:0.0066999998 8:0.99910003 9:0.5 10:0.0066999998 11:0.0024999999 12:0.0066999998 13:0.0024999999 14:0.26890001 15:0.0024999999 16:0.047400001 17:0.0066999998 18:0.9526 19:0.047400001 20:0.0066999998 #
4.2793839103288719982742804859299 1:0.017999999 2:0.9526 3:0.73110002 4:0.9975 5:0.0024999999 6:0.26890001 7:0.5 8:0.017999999 9:0.1192 10:0.0024999999 11:0.0024999999 12:0.9526 13:0.0066999998 14:0.0024999999 15:0.017999999 16:0.047400001 17:0.017999999 18:0.0024999999 19:0.0066999998 20:0.0024999999 #
-4.2793839103288719982742804859299 1:0.0066999998 2:0.99330002 3:0.047400001 4:0.0024999999 5:0.0024999999 6:0.047400001 7:0.017999999 8:0.0024999999 9:0.0066999998 10:0.73110002 11:0.26890001 12:0.99330002 13:0.26890001 14:0.0066999998 15:0.0024999999 16:0.017999999 17:0.047400001 18:0.00089999998 19:0.0024999999 20:0.9526 #
4.2793839103288719982742804859299 1:0.73110002 2:0.00089999998 3:0.00030000001 4:0.00030000001 5:0.98199999 6:0.0024999999 7:0.00030000001 8:0.00089999998 9:0.0024999999 10:0.017999999 11:0.26890001 12:0.00089999998 13:0.88080001 14:0.99910003 15:0.00030000001 16:0.0066999998 17:0.26890001 18:0.99970001 19:0.5 20:0.26890001 #
-4.2793839103288719982742804859299 1:0.017999999 2:0.00089999998 3:0.047400001 4:0.88080001 5:1 6:0.0024999999 7:0.0066999998 8:0.0024999999 9:0.00089999998 10:0.0066999998 11:0.0066999998 12:0.017999999 13:0.0066999998 14:0.0024999999 15:0.00089999998 16:0.0066999998 17:0.017999999 18:0.0024999999 19:0.0024999999 20:0.0066999998 #
4.2793839103288719982742804859299 1:0.26890001 2:0.73110002 3:0.88080001 4:0.98199999 5:0.0066999998 6:0.73110002 7:0.88080001 8:0.5 9:0.5 10:0.0066999998 11:0.0066999998 12:0.88080001 13:0.017999999 14:0.0066999998 15:0.017999999 16:0.88080001 17:0.1192 18:0.0066999998 19:0.017999999 20:0.0066999998 #
-4.2793839103288719982742804859299 1:0.047400001 2:0.88080001 3:0.0066999998 4:0.0024999999 5:0.0066999998 6:0.017999999 7:0.0066999998 8:0.0024999999 9:0.0066999998 10:0.98199999 11:0.1192 12:0.88080001 13:0.26890001 14:0.047400001 15:0.0066999998 16:0.017999999 17:0.047400001 18:0.0024999999 19:0.0066999998 20:0.99330002 #
4.2793839103288719982742804859299 1:0.0066999998 2:0.0066999998 3:0.0024999999 4:0.00030000001 5:1 6:0.00089999998 7:0.00030000001 8:0.00030000001 9:0.00089999998 10:0.9526 11:0.26890001 12:0.00089999998 13:0.9526 14:0.73110002 15:0.00030000001 16:0.0024999999 17:0.047400001 18:0.1192 19:0.1192 20:0.88080001 #
-4.2793839103288719982742804859299 1:0.017999999 2:0.00089999998 3:0.047400001 4:0.99970001 5:0.98199999 6:0.0066999998 7:0.017999999 8:0.1192 9:0.0024999999 10:0.00030000001 11:0.00089999998 12:0.017999999 13:0.00030000001 14:0.00030000001 15:0.0024999999 16:0.1192 17:0.0024999999 18:9.9999997e-05 19:0.00030000001 20:0.00030000001 #
4.2793839103288719982742804859299 1:0.047400001 2:0.88080001 3:0.73110002 4:0.99910003 5:0.00089999998 6:0.26890001 7:0.88080001 8:0.017999999 9:0.047400001 10:0.0024999999 11:0.0024999999 12:0.26890001 13:0.0024999999 14:0.00089999998 15:0.0066999998 16:0.047400001 17:0.017999999 18:0.0024999999 19:0.0024999999 20:0.0024999999 #
-4.2793839103288719982742804859299 1:0.047400001 2:0.73110002 3:0.047400001 4:0.017999999 5:0.0066999998 6:0.88080001 7:0.1192 8:0.0066999998 9:0.047400001 10:0.1192 11:0.88080001 12:0.9526 13:0.9975 14:0.73110002 15:0.017999999 16:0.047400001 17:0.047400001 18:0.017999999 19:0.1192 20:0.047400001 #
4.2793839103288719982742804859299 1:0.1192 2:0.0066999998 3:0.0024999999 4:0.0024999999 5:0.9526 6:0.0066999998 7:0.0066999998 8:0.0024999999 9:0.0024999999 10:0.73110002 11:0.88080001 12:0.0066999998 13:0.5 14:0.88080001 15:0.5 16:0.017999999 17:0.047400001 18:0.26890001 19:0.047400001 20:0.99330002 #
-4.2793839103288719982742804859299 1:0.017999999 2:0.00089999998 3:0.047400001 4:0.99970001 5:0.98199999 6:0.0066999998 7:0.017999999 8:0.1192 9:0.0024999999 10:0.00030000001 11:0.00089999998 12:0.017999999 13:0.00030000001 14:0.00030000001 15:0.0024999999 16:0.1192 17:0.0024999999 18:9.9999997e-05 19:0.00030000001 20:0.00030000001 #
4.2793839103288719982742804859299 1:0.047400001 2:0.88080001 3:0.73110002 4:0.99330002 5:0.00089999998 6:0.73110002 7:0.1192 8:0.0024999999 9:0.047400001 10:0.017999999 11:0.0024999999 12:0.99330002 13:0.017999999 14:0.00089999998 15:0.0024999999 16:0.047400001 17:0.047400001 18:0.00089999998 19:0.0024999999 20:0.0066999998 #
-4.2793839103288719982742804859299 1:0.1192 2:0.73110002 3:0.017999999 4:0.0066999998 5:0.017999999 6:0.88080001 7:0.1192 8:0.0066999998 9:0.1192 10:0.73110002 11:0.5 12:0.047400001 13:0.73110002 14:0.047400001 15:0.0066999998 16:0.017999999 17:0.047400001 18:0.0066999998 19:0.047400001 20:0.9975 #
4.2793839103288719982742804859299 1:0.017999999 2:0.0066999998 3:0.0024999999 4:0.00089999998 5:0.5 6:0.0066999998 7:0.0066999998 8:0.00089999998 9:0.0066999998 10:0.26890001 11:0.99330002 12:0.0066999998 13:0.9526 14:0.99330002 15:0.0024999999 16:0.0066999998 17:0.017999999 18:0.73110002 19:0.1192 20:0.1192 #
-4.2793839103288719982742804859299 1:0.1192 2:0.017999999 3:0.73110002 4:0.017999999 5:0.017999999 6:0.1192 7:0.047400001 8:0.017999999 9:0.017999999 10:0.047400001 11:0.047400001 12:0.017999999 13:0.017999999 14:0.017999999 15:0.26890001 16:0.26890001 17:0.99910003 18:0.9975 19:0.047400001 20:0.047400001 #
4.2793839103288719982742804859299 1:0.26890001 2:0.98199999 3:0.88080001 4:0.88080001 5:0.0066999998 6:0.88080001 7:0.73110002 8:0.26890001 9:0.26890001 10:0.0066999998 11:0.017999999 12:0.9526 13:0.017999999 14:0.0024999999 15:0.047400001 16:0.5 17:0.26890001 18:0.0024999999 19:0.0066999998 20:0.017999999 #
-4.2793839103288719982742804859299 1:0.017999999 2:0.00089999998 3:0.047400001 4:0.99970001 5:0.98199999 6:0.0066999998 7:0.017999999 8:0.1192 9:0.0024999999 10:0.00030000001 11:0.00089999998 12:0.017999999 13:0.00030000001 14:0.00030000001 15:0.0024999999 16:0.1192 17:0.0024999999 18:9.9999997e-05 19:0.00030000001 20:0.00030000001 #
4.2793839103288719982742804859299 1:0.1192 2:0.73110002 3:0.9526 4:0.9975 5:0.0024999999 6:0.73110002 7:0.88080001 8:0.047400001 9:0.1192 10:0.0066999998 11:0.0024999999 12:0.26890001 13:0.0066999998 14:0.0024999999 15:0.017999999 16:0.5 17:0.26890001 18:0.0024999999 19:0.0066999998 20:0.0066999998 #
-4.2793839103288719982742804859299 1:0.047400001 2:0.73110002 3:0.047400001 4:0.017999999 5:0.0066999998 6:0.88080001 7:0.1192 8:0.0066999998 9:0.047400001 10:0.047400001 11:0.88080001 12:0.98199999 13:0.9975 14:0.5 15:0.017999999 16:0.047400001 17:0.047400001 18:0.017999999 19:0.1192 20:0.047400001 #
4.2793839103288719982742804859299 1:0.5 2:0.0024999999 3:0.0024999999 4:0.017999999 5:0.9975 6:0.0066999998 7:0.0024999999 8:0.017999999 9:0.0066999998 10:0.5 11:0.5 12:0.0024999999 13:0.26890001 14:0.99910003 15:0.0024999999 16:0.0066999998 17:0.047400001 18:0.26890001 19:0.73110002 20:0.5 #
-4.2793839103288719982742804859299 1:0.017999999 2:0.99910003 3:0.0066999998 4:0.0024999999 5:0.0024999999 6:0.047400001 7:0.017999999 8:0.0024999999 9:0.1192 10:0.9526 11:0.047400001 12:0.26890001 13:0.047400001 14:0.5 15:0.0024999999 16:0.017999999 17:0.047400001 18:0.0066999998 19:0.5 20:0.88080001 #
4.2793839103288719982742804859299 1:0.1192 2:0.73110002 3:0.73110002 4:0.99330002 5:0.0024999999 6:0.73110002 7:0.9526 8:0.0066999998 9:0.5 10:0.017999999 11:0.0066999998 12:0.9526 13:0.0066999998 14:0.0066999998 15:0.0066999998 16:0.26890001 17:0.5 18:0.0066999998 19:0.0066999998 20:0.0066999998 #
-4.2793839103288719982742804859299 1:0.26890001 2:0.0024999999 3:0.0066999998 4:0.88080001 5:1 6:0.0066999998 7:0.1192 8:0.0066999998 9:0.0024999999 10:0.0066999998 11:0.0066999998 12:0.0024999999 13:0.0066999998 14:0.0024999999 15:0.0024999999 16:0.017999999 17:0.017999999 18:0.0024999999 19:0.047400001 20:0.0066999998 #
4.2793839103288719982742804859299 1:0.017999999 2:0.0066999998 3:0.017999999 4:0.0024999999 5:0.98199999 6:0.0066999998 7:0.0066999998 8:0.0066999998 9:0.017999999 10:0.88080001 11:0.26890001 12:0.0066999998 13:0.5 14:0.99910003 15:0.0066999998 16:0.017999999 17:0.047400001 18:0.1192 19:0.88080001 20:0.5 #
-4.2793839103288719982742804859299 1:0.0066999998 2:0.5 3:0.0066999998 4:0.00089999998 5:0.0024999999 6:0.9526 7:0.0066999998 8:0.00030000001 9:0.047400001 10:0.9975 11:0.5 12:0.0066999998 13:0.98199999 14:0.26890001 15:0.0024999999 16:0.0024999999 17:0.1192 18:0.00089999998 19:0.0066999998 20:0.9526 #
4.2793839103288719982742804859299 1:0.5 2:0.9526 3:0.73110002 4:0.98199999 5:0.0066999998 6:0.1192 7:0.26890001 8:0.5 9:0.73110002 10:0.017999999 11:0.017999999 12:0.88080001 13:0.0066999998 14:0.0066999998 15:0.017999999 16:0.73110002 17:0.26890001 18:0.0024999999 19:0.017999999 20:0.0066999998 #
-4.2793839103288719982742804859299 1:0.017999999 2:0.0066999998 3:0.26890001 4:0.99970001 5:0.98199999 6:0.047400001 7:0.26890001 8:0.017999999 9:0.047400001 10:0.0024999999 11:0.0024999999 12:0.017999999 13:0.0024999999 14:0.0024999999 15:0.017999999 16:0.047400001 17:0.017999999 18:0.00089999998 19:0.0024999999 20:0.0024999999 #
4.2793839103288719982742804859299 1:0.017999999 2:0.0024999999 3:0.00089999998 4:0.00030000001 5:0.99330002 6:0.0024999999 7:0.00089999998 8:0.00089999998 9:0.00089999998 10:0.73110002 11:0.9975 12:0.0024999999 13:0.73110002 14:0.047400001 15:0.00089999998 16:0.0024999999 17:0.0066999998 18:0.017999999 19:0.0066999998 20:0.73110002 #
-4.2793839103288719982742804859299 1:0.047400001 2:0.98199999 3:0.0066999998 4:0.0024999999 5:0.0066999998 6:0.047400001 7:0.0066999998 8:0.0024999999 9:0.017999999 10:0.9975 11:0.5 12:0.1192 13:0.9526 14:0.88080001 15:0.0024999999 16:0.1192 17:0.1192 18:0.0066999998 19:0.047400001 20:0.73110002 #
4.2793839103288719982742804859299 1:0.26890001 2:0.88080001 3:0.5 4:0.88080001 5:0.0066999998 6:0.73110002 7:0.99330002 8:0.017999999 9:0.1192 10:0.0024999999 11:0.0024999999 12:0.88080001 13:0.0066999998 14:0.0024999999 15:0.017999999 16:0.26890001 17:0.047400001 18:0.0024999999 19:0.0066999998 20:0.0066999998 #
-4.2793839103288719982742804859299 1:0.017999999 2:0.0066999998 3:0.26890001 4:0.99970001 5:0.98199999 6:0.047400001 7:0.26890001 8:0.017999999 9:0.047400001 10:0.0024999999 11:0.0024999999 12:0.017999999 13:0.0024999999 14:0.0024999999 15:0.017999999 16:0.047400001 17:0.017999999 18:0.00089999998 19:0.0024999999 20:0.0024999999 #
4.2793839103288719982742804859299 1:0.017999999 2:0.00089999998 3:0.00030000001 4:0.00030000001 5:0.98199999 6:0.00089999998 7:0.00030000001 8:0.00030000001 9:0.00030000001 10:0.99330002 11:0.26890001 12:0.00089999998 13:0.88080001 14:0.047400001 15:0.00089999998 16:0.0024999999 17:0.0066999998 18:0.00089999998 19:0.0024999999 20:0.9975 #
-4.2793839103288719982742804859299 1:0.047400001 2:0.98199999 3:0.0066999998 4:0.0024999999 5:0.0066999998 6:0.047400001 7:0.0066999998 8:0.0024999999 9:0.017999999 10:0.9975 11:0.5 12:0.1192 13:0.9526 14:0.88080001 15:0.0024999999 16:0.1192 17:0.1192 18:0.0066999998 19:0.047400001 20:0.73110002 #
4.2793839103288719982742804859299 1:0.26890001 2:0.88080001 3:0.5 4:0.9526 5:0.0066999998 6:0.73110002 7:0.98199999 8:0.1192 9:0.5 10:0.0066999998 11:0.0066999998 12:0.88080001 13:0.017999999 14:0.0066999998 15:0.26890001 16:0.5 17:0.1192 18:0.0066999998 19:0.017999999 20:0.017999999 #
-4.2793839103288719982742804859299 1:0.0066999998 2:0.5 3:0.0066999998 4:0.00089999998 5:0.0024999999 6:0.9526 7:0.0066999998 8:0.00030000001 9:0.047400001 10:0.9975 11:0.5 12:0.0066999998 13:0.98199999 14:0.26890001 15:0.0024999999 16:0.0024999999 17:0.1192 18:0.00089999998 19:0.017999999 20:0.9526 #
4.2793839103288719982742804859299 1:0.0024999999 2:0.00030000001 3:0.00030000001 4:9.9999997e-05 5:0.88080001 6:0.00089999998 7:0.00030000001 8:9.9999997e-05 9:0.00089999998 10:0.1192 11:0.99330002 12:0.00030000001 13:0.99330002 14:0.98199999 15:0.00030000001 16:0.00030000001 17:0.0066999998 18:0.017999999 19:0.73110002 20:0.017999999 #
-4.2793839103288719982742804859299 1:0.0024999999 2:0.0024999999 3:0.99970001 4:0.99330002 5:0.99330002 6:0.0066999998 7:0.0066999998 8:0.047400001 9:0.0066999998 10:0.00030000001 11:0.00030000001 12:0.0024999999 13:0.00089999998 14:0.00030000001 15:0.00089999998 16:0.26890001 17:0.0066999998 18:9.9999997e-05 19:0.00089999998 20:0.00030000001 #
4.2793839103288719982742804859299 1:0.26890001 2:0.9526 3:0.5 4:0.98199999 5:0.0024999999 6:0.9526 7:0.88080001 8:0.1192 9:0.1192 10:0.0066999998 11:0.0066999998 12:0.9526 13:0.017999999 14:0.0024999999 15:0.017999999 16:0.1192 17:0.047400001 18:0.0024999999 19:0.047400001 20:0.0066999998 #
-4.2793839103288719982742804859299 1:0.1192 2:0.73110002 3:0.0066999998 4:0.0066999998 5:0.017999999 6:0.88080001 7:0.047400001 8:0.0066999998 9:0.1192 10:0.73110002 11:0.26890001 12:0.017999999 13:0.73110002 14:0.017999999 15:0.0066999998 16:0.017999999 17:0.047400001 18:0.0066999998 19:0.047400001 20:0.9975 #
4.2793839103288719982742804859299 1:0.017999999 2:0.0066999998 3:0.0024999999 4:0.0024999999 5:0.9526 6:0.0066999998 7:0.0024999999 8:0.0024999999 9:0.0066999998 10:0.98199999 11:0.98199999 12:0.0066999998 13:0.73110002 14:0.9526 15:0.0024999999 16:0.0066999998 17:0.017999999 18:0.017999999 19:0.1192 20:0.73110002 #
-4.2793839103288719982742804859299 1:0.047400001 2:0.99330002 3:0.017999999 4:0.0066999998 5:0.017999999 6:0.047400001 7:0.017999999 8:0.0024999999 9:0.017999999 10:0.88080001 11:0.88080001 12:0.1192 13:0.26890001 14:0.047400001 15:0.0066999998 16:0.017999999 17:0.047400001 18:0.0066999998 19:0.017999999 20:0.98199999 #
4.2793839103288719982742804859299 1:0.047400001 2:0.9526 3:0.99330002 4:0.73110002 5:0.0066999998 6:0.88080001 7:0.9526 8:0.047400001 9:0.73110002 10:0.0066999998 11:0.0066999998 12:0.73110002 13:0.017999999 14:0.0066999998 15:0.047400001 16:0.26890001 17:0.1192 18:0.0066999998 19:0.047400001 20:0.017999999 #
-4.2793839103288719982742804859299 1:0.017999999 2:0.0024999999 3:0.017999999 4:0.99330002 5:1 6:0.0066999998 7:0.017999999 8:0.0066999998 9:0.0024999999 10:0.0066999998 11:0.0066999998 12:0.0066999998 13:0.0066999998 14:0.0024999999 15:0.017999999 16:0.88080001 17:0.017999999 18:0.0024999999 19:0.0024999999 20:0.0066999998 #
4.2793839103288719982742804859299 1:0.047400001 2:0.0024999999 3:0.0024999999 4:0.0024999999 5:0.98199999 6:0.0066999998 7:0.0024999999 8:0.0024999999 9:0.0024999999 10:0.88080001 11:0.99330002 12:0.0024999999 13:0.88080001 14:0.88080001 15:0.0024999999 16:0.0066999998 17:0.1192 18:0.0066999998 19:0.5 20:0.5 #
-4.2793839103288719982742804859299 1:0.047400001 2:0.99330002 3:0.017999999 4:0.0066999998 5:0.017999999 6:0.047400001 7:0.017999999 8:0.0024999999 9:0.017999999 10:0.88080001 11:0.88080001 12:0.1192 13:0.26890001 14:0.047400001 15:0.0066999998 16:0.017999999 17:0.047400001 18:0.0066999998 19:0.017999999 20:0.98199999 #
4.2793839103288719982742804859299 1:0.047400001 2:0.88080001 3:0.5 4:0.98199999 5:0.0024999999 6:0.9526 7:0.99330002 8:0.047400001 9:0.26890001 10:0.0066999998 11:0.0066999998 12:0.26890001 13:0.017999999 14:0.0024999999 15:0.017999999 16:0.1192 17:0.047400001 18:0.017999999 19:0.017999999 20:0.0066999998 #
-4.2793839103288719982742804859299 1:0.1192 2:0.9526 3:0.017999999 4:0.0066999998 5:0.0066999998 6:0.9526 7:0.017999999 8:0.017999999 9:0.5 10:0.88080001 11:0.9526 12:0.26890001 13:0.5 14:0.047400001 15:0.0066999998 16:0.1192 17:0.047400001 18:0.1192 19:0.047400001 20:0.26890001 #
4.2793839103288719982742804859299 1:0.0066999998 2:0.0024999999 3:0.00089999998 4:0.00089999998 5:0.73110002 6:0.0066999998 7:0.00089999998 8:0.00089999998 9:0.0024999999 10:0.88080001 11:0.9975 12:0.0024999999 13:0.5 14:0.9526 15:0.0066999998 16:0.0066999998 17:0.017999999 18:0.1192 19:0.017999999 20:0.1192 #
-4.2793839103288719982742804859299 1:0.26890001 2:0.0066999998 3:0.1192 4:0.98199999 5:1 6:0.0066999998 7:0.047400001 8:0.017999999 9:0.0066999998 10:0.0066999998 11:0.0066999998 12:0.047400001 13:0.0066999998 14:0.0024999999 15:0.0066999998 16:0.5 17:0.017999999 18:0.0024999999 19:0.0024999999 20:0.017999999 #
4.2793839103288719982742804859299 1:0.73110002 2:0.88080001 3:0.73110002 4:0.98199999 5:0.0024999999 6:0.73110002 7:0.9526 8:0.26890001 9:0.26890001 10:0.0066999998 11:0.0066999998 12:0.73110002 13:0.017999999 14:0.0024999999 15:0.017999999 16:0.26890001 17:0.26890001 18:0.0024999999 19:0.0066999998 20:0.0066999998 #
-4.2793839103288719982742804859299 1:0.0024999999 2:0.99910003 3:0.1192 4:0.00089999998 5:0.0066999998 6:0.047400001 7:0.0066999998 8:0.00089999998 9:0.017999999 10:0.0024999999 11:0.73110002 12:0.88080001 13:0.88080001 14:0.017999999 15:0.00089999998 16:0.0024999999 17:0.0024999999 18:0.00089999998 19:0.26890001 20:0.0024999999 #
4.2793839103288719982742804859299 1:0.0066999998 2:0.0024999999 3:0.00089999998 4:0.00089999998 5:0.73110002 6:0.0024999999 7:0.0024999999 8:0.00089999998 9:0.00089999998 10:0.73110002 11:0.9975 12:0.0024999999 13:0.5 14:0.9526 15:0.0066999998 16:0.0066999998 17:0.017999999 18:0.1192 19:0.017999999 20:0.1192 #
-4.2793839103288719982742804859299 1:0.0024999999 2:0.99910003 3:0.1192 4:0.00089999998 5:0.0066999998 6:0.047400001 7:0.0066999998 8:0.00089999998 9:0.017999999 10:0.0024999999 11:0.73110002 12:0.88080001 13:0.88080001 14:0.017999999 15:0.00089999998 16:0.0024999999 17:0.0024999999 18:0.00089999998 19:0.26890001 20:0.0024999999 #
4.2793839103288719982742804859299 1:0.047400001 2:0.98199999 3:0.26890001 4:0.88080001 5:0.0024999999 6:0.98199999 7:0.99330002 8:0.0066999998 9:0.26890001 10:0.0024999999 11:0.0066999998 12:0.9526 13:0.0066999998 14:0.0024999999 15:0.017999999 16:0.047400001 17:0.047400001 18:0.017999999 19:0.0066999998 20:0.0024999999 #
-4.2793839103288719982742804859299 1:0.017999999 2:0.00089999998 3:0.0066999998 4:0.73110002 5:1 6:0.0024999999 7:0.0024999999 8:0.0066999998 9:0.0024999999 10:0.0024999999 11:0.0024999999 12:0.0024999999 13:0.0024999999 14:0.00089999998 15:0.0066999998 16:0.9526 17:0.017999999 18:0.00089999998 19:0.0024999999 20:0.0066999998 #
4.2793839103288719982742804859299 1:0.017999999 2:0.0066999998 3:0.0024999999 4:0.0024999999 5:0.9526 6:0.0066999998 7:0.0066999998 8:0.0024999999 9:0.0066999998 10:0.9526 11:0.99330002 12:0.0066999998 13:0.88080001 14:0.88080001 15:0.0066999998 16:0.0066999998 17:0.047400001 18:0.017999999 19:0.047400001 20:0.73110002 #
-4.2793839103288719982742804859299 1:0.047400001 2:0.9526 3:0.047400001 4:0.017999999 5:0.017999999 6:0.73110002 7:0.1192 8:0.0066999998 9:0.88080001 10:0.88080001 11:0.73110002 12:0.88080001 13:0.88080001 14:0.1192 15:0.047400001 16:0.047400001 17:0.047400001 18:0.1192 19:0.047400001 20:0.9526 #
4.2793839103288719982742804859299 1:0.26890001 2:0.9526 3:0.1192 4:0.73110002 5:0.0024999999 6:0.26890001 7:0.1192 8:0.26890001 9:0.98199999 10:0.0024999999 11:0.0024999999 12:0.99330002 13:0.0066999998 14:0.0024999999 15:0.0066999998 16:0.88080001 17:0.047400001 18:0.0024999999 19:0.0066999998 20:0.0066999998 #
-4.2793839103288719982742804859299 1:0.047400001 2:0.99330002 3:0.017999999 4:0.017999999 5:0.047400001 6:0.1192 7:0.047400001 8:0.017999999 9:0.1192 10:0.73110002 11:0.73110002 12:0.73110002 13:0.5 14:0.1192 15:0.017999999 16:0.047400001 17:0.1192 18:0.017999999 19:0.047400001 20:0.98199999 #
4.2793839103288719982742804859299 1:0.047400001 2:0.0066999998 3:0.017999999 4:0.0024999999 5:0.98199999 6:0.0066999998 7:0.0066999998 8:0.0024999999 9:0.0024999999 10:0.98199999 11:0.9526 12:0.0066999998 13:0.73110002 14:0.1192 15:0.0066999998 16:0.017999999 17:0.1192 18:0.1192 19:0.017999999 20:0.99330002 #
-4.2793839103288719982742804859299 1:0.017999999 2:0.0024999999 3:0.99330002 4:0.99910003 5:0.99330002 6:0.017999999 7:0.047400001 8:0.017999999 9:0.0066999998 10:0.00089999998 11:0.00089999998 12:0.0024999999 13:0.00089999998 14:0.00030000001 15:0.00089999998 16:0.73110002 17:0.017999999 18:9.9999997e-05 19:0.0024999999 20:0.047400001 #
4.2793839103288719982742804859299 1:0.26890001 2:0.9526 3:0.1192 4:0.73110002 5:0.0024999999 6:0.26890001 7:0.1192 8:0.26890001 9:0.98199999 10:0.0024999999 11:0.0024999999 12:0.99330002 13:0.0066999998 14:0.0024999999 15:0.0066999998 16:0.88080001 17:0.047400001 18:0.0024999999 19:0.0066999998 20:0.0066999998 #
-4.2793839103288719982742804859299 1:0.017999999 2:0.26890001 3:0.047400001 4:0.017999999 5:0.0024999999 6:0.5 7:0.26890001 8:0.0066999998 9:0.26890001 10:0.1192 11:0.73110002 12:0.98199999 13:0.99910003 14:0.5 15:0.0066999998 16:0.017999999 17:0.1192 18:0.0066999998 19:0.047400001 20:0.26890001 #
4.2793839103288719982742804859299 1:0.017999999 2:0.0066999998 3:0.0024999999 4:0.00089999998 5:0.9526 6:0.0066999998 7:0.0024999999 8:0.00089999998 9:0.0024999999 10:0.73110002 11:0.99330002 12:0.0024999999 13:0.9975 14:0.047400001 15:0.0024999999 16:0.0066999998 17:0.047400001 18:0.0066999998 19:0.017999999 20:0.88080001 #
-4.2793839103288719982742804859299 1:0.017999999 2:0.0024999999 3:0.99330002 4:0.99910003 5:0.99330002 6:0.017999999 7:0.047400001 8:0.017999999 9:0.0066999998 10:0.00089999998 11:0.00089999998 12:0.0024999999 13:0.00089999998 14:0.00030000001 15:0.00089999998 16:0.73110002 17:0.017999999 18:9.9999997e-05 19:0.0024999999 20:0.047400001 #
4.2793839103288719982742804859299 1:0.26890001 2:0.9526 3:0.1192 4:0.73110002 5:0.0024999999 6:0.26890001 7:0.1192 8:0.26890001 9:0.98199999 10:0.0024999999 11:0.0024999999 12:0.99330002 13:0.0066999998 14:0.0024999999 15:0.0066999998 16:0.88080001 17:0.047400001 18:0.0024999999 19:0.0066999998 20:0.0066999998 #
-4.2793839103288719982742804859299 1:0.047400001 2:0.73110002 3:0.017999999 4:0.017999999 5:0.0024999999 6:0.88080001 7:0.1192 8:0.0066999998 9:0.1192 10:0.5 11:0.26890001 12:0.99910003 13:0.5 14:0.5 15:0.017999999 16:0.047400001 17:0.047400001 18:0.0066999998 19:0.017999999 20:0.017999999 #
4.2793839103288719982742804859299 1:0.017999999 2:0.0066999998 3:0.0024999999 4:0.00089999998 5:0.9526 6:0.0066999998 7:0.0024999999 8:0.00089999998 9:0.0024999999 10:0.73110002 11:0.99330002 12:0.0024999999 13:0.9975 14:0.047400001 15:0.0024999999 16:0.0066999998 17:0.047400001 18:0.0066999998 19:0.017999999 20:0.88080001 #
-4.2793839103288719982742804859299 1:0.017999999 2:0.99330002 3:0.017999999 4:0.017999999 5:0.047400001 6:0.047400001 7:0.047400001 8:0.0066999998 9:0.73110002 10:0.5 11:0.73110002 12:0.26890001 13:0.5 14:0.99330002 15:0.0066999998 16:0.017999999 17:0.017999999 18:0.017999999 19:0.5 20:0.1192 #
4.2793839103288719982742804859299 1:0.26890001 2:0.9526 3:0.1192 4:0.73110002 5:0.0024999999 6:0.26890001 7:0.1192 8:0.26890001 9:0.98199999 10:0.0024999999 11:0.0024999999 12:0.99330002 13:0.0066999998 14:0.0024999999 15:0.0066999998 16:0.88080001 17:0.047400001 18:0.0024999999 19:0.0066999998 20:0.0066999998 #
-4.2793839103288719982742804859299 1:0.017999999 2:0.0066999998 3:0.1192 4:0.99910003 5:0.98199999 6:0.047400001 7:0.26890001 8:0.017999999 9:0.047400001 10:0.0024999999 11:0.0066999998 12:0.017999999 13:0.0066999998 14:0.0024999999 15:0.017999999 16:0.88080001 17:0.26890001 18:0.0024999999 19:0.0024999999 20:0.0066999998 #
4.2793839103288719982742804859299 1:0.047400001 2:0.9526 3:0.26890001 4:0.98199999 5:0.017999999 6:0.88080001 7:0.98199999 8:0.017999999 9:0.73110002 10:0.0066999998 11:0.0066999998 12:0.88080001 13:0.017999999 14:0.0066999998 15:0.047400001 16:0.1192 17:0.047400001 18:0.0066999998 19:0.017999999 20:0.0066999998 #
-4.2793839103288719982742804859299 1:0.0066999998 2:0.99910003 3:0.1192 4:0.0024999999 5:0.0066999998 6:0.047400001 7:0.0066999998 8:0.017999999 9:0.017999999 10:0.0024999999 11:0.73110002 12:0.88080001 13:0.88080001 14:0.017999999 15:0.00089999998 16:0.0066999998 17:0.0024999999 18:0.00089999998 19:0.26890001 20:0.0024999999 #
4.2793839103288719982742804859299 1:0.0066999998 2:0.0024999999 3:0.00030000001 4:0.00030000001 5:0.99330002 6:0.00089999998 7:0.00089999998 8:0.00030000001 9:0.00089999998 10:0.5 11:0.9975 12:0.00089999998 13:0.5 14:0.047400001 15:0.00089999998 16:0.00089999998 17:0.0066999998 18:0.0024999999 19:0.0066999998 20:0.1192 #
-4.2793839103288719982742804859299 1:0.017999999 2:0.73110002 3:0.017999999 4:0.0066999998 5:0.0066999998 6:0.1192 7:0.017999999 8:0.1192 9:0.9526 10:0.1192 11:0.9526 12:0.5 13:0.5 14:0.9975 15:0.0066999998 16:0.017999999 17:0.017999999 18:0.1192 19:0.26890001 20:0.047400001 #
4.2793839103288719982742804859299 1:0.26890001 2:0.9526 3:0.1192 4:0.88080001 5:0.0024999999 6:0.88080001 7:0.99330002 8:0.017999999 9:0.26890001 10:0.0024999999 11:0.0024999999 12:0.88080001 13:0.0066999998 14:0.0024999999 15:0.0066999998 16:0.26890001 17:0.047400001 18:0.0024999999 19:0.0066999998 20:0.0066999998 #
-4.2793839103288719982742804859299 1:0.017999999 2:0.0066999998 3:0.88080001 4:0.99330002 5:0.99989998 6:0.017999999 7:0.047400001 8:0.017999999 9:0.047400001 10:0.0066999998 11:0.0024999999 12:0.017999999 13:0.0066999998 14:0.0024999999 15:0.0024999999 16:0.26890001 17:0.5 18:0.00089999998 19:0.0066999998 20:0.0066999998 #
4.2793839103288719982742804859299 1:0.0066999998 2:0.0024999999 3:0.00089999998 4:0.00089999998 5:0.88080001 6:0.0024999999 7:0.00089999998 8:0.00089999998 9:0.00089999998 10:0.26890001 11:0.9975 12:0.0024999999 13:0.9526 14:0.5 15:0.00089999998 16:0.0066999998 17:0.0066999998 18:0.0024999999 19:0.0066999998 20:0.047400001 #
-4.2793839103288719982742804859299 1:0.047400001 2:0.99330002 3:0.017999999 4:0.0066999998 5:0.017999999 6:0.047400001 7:0.017999999 8:0.0066999998 9:0.017999999 10:0.88080001 11:0.98199999 12:0.1192 13:0.26890001 14:0.1192 15:0.0066999998 16:0.017999999 17:0.047400001 18:0.017999999 19:0.017999999 20:0.5 #
4.2793839103288719982742804859299 1:0.1192 2:0.88080001 3:0.73110002 4:0.9526 5:0.0066999998 6:0.5 7:0.88080001 8:0.047400001 9:0.73110002 10:0.017999999 11:0.017999999 12:0.9526 13:0.017999999 14:0.0066999998 15:0.88080001 16:0.73110002 17:0.26890001 18:0.0066999998 19:0.017999999 20:0.017999999 #
-4.2793839103288719982742804859299 1:0.0024999999 2:0.0024999999 3:0.047400001 4:0.99970001 5:0.5 6:0.017999999 7:0.1192 8:0.017999999 9:0.0066999998 10:0.00089999998 11:0.00030000001 12:0.0066999998 13:0.00089999998 14:0.00030000001 15:0.0024999999 16:0.017999999 17:0.0066999998 18:9.9999997e-05 19:0.00089999998 20:0.00089999998 #
4.2793839103288719982742804859299 1:0.047400001 2:0.0066999998 3:0.0024999999 4:0.00089999998 5:0.99989998 6:0.017999999 7:0.0024999999 8:0.0066999998 9:0.0024999999 10:0.88080001 11:0.73110002 12:0.0024999999 13:0.99330002 14:0.0066999998 15:0.0024999999 16:0.017999999 17:0.047400001 18:0.0024999999 19:0.1192 20:0.73110002 #
-4.2793839103288719982742804859299 1:0.017999999 2:0.26890001 3:0.017999999 4:0.017999999 5:0.0066999998 6:0.26890001 7:0.1192 8:0.0066999998 9:0.017999999 10:0.26890001 11:0.73110002 12:0.9975 13:0.98199999 14:0.0066999998 15:0.017999999 16:0.017999999 17:0.017999999 18:0.0024999999 19:0.0066999998 20:0.5 #
4.2793839103288719982742804859299 1:0.26890001 2:0.9526 3:0.1192 4:0.88080001 5:0.0024999999 6:0.88080001 7:0.99330002 8:0.017999999 9:0.26890001 10:0.0024999999 11:0.0024999999 12:0.88080001 13:0.0066999998 14:0.0024999999 15:0.0066999998 16:0.26890001 17:0.047400001 18:0.0024999999 19:0.0066999998 20:0.0066999998 #
-4.2793839103288719982742804859299 1:0.5 2:0.017999999 3:0.047400001 4:0.1192 5:0.88080001 6:0.047400001 7:0.99910003 8:0.0066999998 9:0.0066999998 10:0.00089999998 11:0.0024999999 12:0.017999999 13:0.0024999999 14:0.00089999998 15:0.0066999998 16:0.5 17:0.047400001 18:0.00089999998 19:0.0024999999 20:0.0066999998 #
4.2793839103288719982742804859299 1:0.017999999 2:0.0066999998 3:0.0024999999 4:0.0024999999 5:0.9526 6:0.0066999998 7:0.0024999999 8:0.0024999999 9:0.0024999999 10:0.88080001 11:0.99330002 12:0.0066999998 13:0.9526 14:0.88080001 15:0.0024999999 16:0.0066999998 17:0.26890001 18:0.0066999998 19:0.047400001 20:0.88080001 #
-4.2793839103288719982742804859299 1:0.047400001 2:0.73110002 3:0.0066999998 4:0.0066999998 5:0.0066999998 6:0.5 7:0.0066999998 8:0.0024999999 9:0.017999999 10:0.5 11:0.9975 12:0.0066999998 13:0.73110002 14:0.1192 15:0.0024999999 16:0.017999999 17:0.047400001 18:0.0066999998 19:0.26890001 20:0.26890001 #
4.2793839103288719982742804859299 1:0.26890001 2:0.9526 3:0.1192 4:0.88080001 5:0.0024999999 6:0.88080001 7:0.99330002 8:0.017999999 9:0.26890001 10:0.0024999999 11:0.0024999999 12:0.88080001 13:0.0066999998 14:0.0024999999 15:0.0066999998 16:0.26890001 17:0.047400001 18:0.0024999999 19:0.0066999998 20:0.0066999998 #
-4.2793839103288719982742804859299 1:0.1192 2:0.017999999 3:0.1192 4:0.9526 5:0.99910003 6:0.017999999 7:0.047400001 8:0.017999999 9:0.1192 10:0.0066999998 11:0.0066999998 12:0.017999999 13:0.0066999998 14:0.0024999999 15:0.017999999 16:0.99330002 17:0.1192 18:0.0024999999 19:0.0066999998 20:0.0066999998 #
4.2793839103288719982742804859299 1:0.047400001 2:0.0066999998 3:0.0066999998 4:0.0066999998 5:0.98199999 6:0.0066999998 7:0.0066999998 8:0.0066999998 9:0.0066999998 10:0.73110002 11:0.99330002 12:0.0066999998 13:0.88080001 14:0.88080001 15:0.0066999998 16:0.017999999 17:0.1192 18:0.017999999 19:0.5 20:0.5 #
-4.2793839103288719982742804859299 1:0.1192 2:0.73110002 3:0.017999999 4:0.0066999998 5:0.0066999998 6:0.88080001 7:0.047400001 8:0.1192 9:0.017999999 10:0.1192 11:0.26890001 12:0.9526 13:0.99970001 14:0.5 15:0.0066999998 16:0.047400001 17:0.047400001 18:0.017999999 19:0.017999999 20:0.047400001 #
4.2793839103288719982742804859299 1:0.5 2:0.88080001 3:0.5 4:0.9526 5:0.0024999999 6:0.73110002 7:0.99330002 8:0.047400001 9:0.047400001 10:0.0024999999 11:0.0066999998 12:0.73110002 13:0.0066999998 14:0.0024999999 15:0.017999999 16:0.1192 17:0.047400001 18:0.0024999999 19:0.0066999998 20:0.0066999998 #
-4.2793839103288719982742804859299 1:0.047400001 2:0.9526 3:0.047400001 4:0.017999999 5:0.017999999 6:0.5 7:0.047400001 8:0.0066999998 9:0.26890001 10:0.88080001 11:0.88080001 12:0.88080001 13:0.73110002 14:0.1192 15:0.047400001 16:0.047400001 17:0.047400001 18:0.26890001 19:0.047400001 20:0.9526 #
4.2793839103288719982742804859299 1:0.017999999 2:0.00089999998 3:0.00089999998 4:0.00089999998 5:0.88080001 6:0.0024999999 7:0.00089999998 8:0.0066999998 9:0.00089999998 10:0.99910003 11:0.5 12:0.0066999998 13:0.88080001 14:0.047400001 15:0.00089999998 16:0.017999999 17:0.047400001 18:0.0024999999 19:0.0066999998 20:0.73110002 #
-4.2793839103288719982742804859299 1:0.1192 2:0.0066999998 3:0.0066999998 4:0.047400001 5:0.9975 6:0.1192 7:0.99910003 8:0.0024999999 9:0.0066999998 10:0.0066999998 11:0.0024999999 12:0.017999999 13:0.017999999 14:0.00089999998 15:0.0066999998 16:0.017999999 17:0.26890001 18:0.00089999998 19:0.0024999999 20:0.0024999999 #
4.2793839103288719982742804859299 1:0.1192 2:0.99330002 3:0.73110002 4:0.88080001 5:0.0066999998 6:0.9526 7:0.88080001 8:0.017999999 9:0.5 10:0.0066999998 11:0.0066999998 12:0.88080001 13:0.017999999 14:0.0066999998 15:0.017999999 16:0.5 17:0.1192 18:0.0066999998 19:0.1192 20:0.0066999998 #
-4.2793839103288719982742804859299 1:0.0066999998 2:0.99910003 3:0.017999999 4:0.0066999998 5:0.00089999998 6:0.1192 7:0.047400001 8:0.0024999999 9:0.1192 10:0.0066999998 11:0.5 12:0.98199999 13:0.88080001 14:0.0066999998 15:0.0024999999 16:0.017999999 17:0.0066999998 18:0.017999999 19:0.017999999 20:0.0066999998 #
4.2793839103288719982742804859299 1:0.1192 2:0.5 3:0.5 4:0.9526 5:0.0066999998 6:0.9526 7:0.99330002 8:0.1192 9:0.5 10:0.0066999998 11:0.0024999999 12:0.9526 13:0.0066999998 14:0.0024999999 15:0.0066999998 16:0.047400001 17:0.047400001 18:0.0024999999 19:0.0066999998 20:0.0066999998 #
-4.2793839103288719982742804859299 1:0.1192 2:0.5 3:0.0066999998 4:0.0024999999 5:0.0024999999 6:0.5 7:0.0066999998 8:0.0066999998 9:0.99910003 10:0.26890001 11:0.73110002 12:0.0066999998 13:0.047400001 14:0.88080001 15:0.0066999998 16:0.017999999 17:0.017999999 18:0.047400001 19:0.99330002 20:0.73110002 #
4.2793839103288719982742804859299 1:0.1192 2:0.00089999998 3:0.017999999 4:0.00030000001 5:0.98199999 6:0.00089999998 7:0.00089999998 8:0.0066999998 9:0.00030000001 10:0.9975 11:0.88080001 12:0.00089999998 13:0.9526 14:0.047400001 15:0.00089999998 16:0.017999999 17:0.1192 18:0.00089999998 19:0.047400001 20:0.9526 #
-4.2793839103288719982742804859299 1:0.047400001 2:0.0066999998 3:0.9526 4:0.98199999 5:0.99970001 6:0.017999999 7:0.047400001 8:0.73110002 9:0.017999999 10:0.0066999998 11:0.0066999998 12:0.017999999 13:0.0066999998 14:0.0024999999 15:0.0066999998 16:0.73110002 17:0.5 18:0.0024999999 19:0.0066999998 20:0.0066999998 #
4.2793839103288719982742804859299 1:0.047400001 2:0.0024999999 3:0.0024999999 4:0.0024999999 5:0.9526 6:0.0066999998 7:0.0024999999 8:0.0024999999 9:0.0024999999 10:0.9975 11:0.88080001 12:0.0066999998 13:0.9526 14:0.5 15:0.0024999999 16:0.047400001 17:0.1192 18:0.0066999998 19:0.017999999 20:0.9526 #
-4.2793839103288719982742804859299 1:0.047400001 2:0.98199999 3:0.0024999999 4:0.0024999999 5:0.0066999998 6:0.017999999 7:0.0024999999 8:0.00089999998 9:0.0024999999 10:0.9975 11:0.5 12:0.017999999 13:0.1192 14:0.017999999 15:0.0024999999 16:0.0066999998 17:0.017999999 18:0.0024999999 19:0.0066999998 20:0.98199999 #
4.2793839103288719982742804859299 1:0.26890001 2:0.73110002 3:0.73110002 4:0.98199999 5:0.0066999998 6:0.5 7:0.88080001 8:0.017999999 9:0.73110002 10:0.0024999999 11:0.017999999 12:0.98199999 13:0.0066999998 14:0.0024999999 15:0.73110002 16:0.1192 17:0.26890001 18:0.0024999999 19:0.017999999 20:0.0066999998 #
-4.2793839103288719982742804859299 1:0.047400001 2:0.0066999998 3:0.98199999 4:0.88080001 5:0.99989998 6:0.017999999 7:0.017999999 8:0.26890001 9:0.0066999998 10:0.0066999998 11:0.0066999998 12:0.0066999998 13:0.0066999998 14:0.017999999 15:0.0066999998 16:0.73110002 17:0.73110002 18:0.0024999999 19:0.0066999998 20:0.0066999998 #
4.2793839103288719982742804859299 1:0.1192 2:0.00089999998 3:0.00030000001 4:0.00030000001 5:0.88080001 6:0.00089999998 7:0.00089999998 8:0.0024999999 9:0.00030000001 10:0.9975 11:0.9526 12:0.0024999999 13:0.5 14:0.1192 15:0.00089999998 16:0.0066999998 17:0.047400001 18:0.00089999998 19:0.0066999998 20:0.98199999 #
-4.2793839103288719982742804859299 1:0.047400001 2:0.047400001 3:0.047400001 4:0.0066999998 5:0.0024999999 6:0.9975 7:0.047400001 8:0.0066999998 9:0.017999999 10:0.017999999 11:0.047400001 12:0.98199999 13:0.98199999 14:0.9526 15:0.1192 16:0.017999999 17:0.017999999 18:0.1192 19:0.26890001 20:0.047400001 #
4.2793839103288719982742804859299 1:0.5 2:0.88080001 3:0.73110002 4:0.9975 5:0.0066999998 6:0.5 7:0.9526 8:0.1192 9:0.5 10:0.0066999998 11:0.0066999998 12:0.26890001 13:0.0066999998 14:0.0024999999 15:0.017999999 16:0.26890001 17:0.1192 18:0.017999999 19:0.0066999998 20:0.0066999998 #
-4.2793839103288719982742804859299 1:0.0066999998 2:0.9526 3:0.0066999998 4:0.0024999999 5:0.017999999 6:0.1192 7:0.0066999998 8:0.017999999 9:0.017999999 10:0.99910003 11:0.73110002 12:0.017999999 13:0.1192 14:0.017999999 15:0.0024999999 16:0.0066999998 17:0.017999999 18:0.0024999999 19:0.047400001 20:0.26890001 #
4.2793839103288719982742804859299 1:0.5 2:0.88080001 3:0.26890001 4:0.88080001 5:0.00089999998 6:0.73110002 7:0.9526 8:0.047400001 9:0.1192 10:0.0024999999 11:0.0024999999 12:0.99330002 13:0.0066999998 14:0.00089999998 15:0.0066999998 16:0.1192 17:0.047400001 18:0.00089999998 19:0.0024999999 20:0.0024999999 #
-4.2793839103288719982742804859299 1:0.0066999998 2:0.0066999998 3:0.98199999 4:0.9975 5:0.88080001 6:0.0066999998 7:0.017999999 8:0.047400001 9:0.017999999 10:0.0024999999 11:0.00089999998 12:0.017999999 13:0.0024999999 14:0.00089999998 15:0.0024999999 16:0.5 17:0.99330002 18:0.00089999998 19:0.0024999999 20:0.0066999998 #
4.2793839103288719982742804859299 1:0.017999999 2:0.0066999998 3:0.0024999999 4:0.0024999999 5:0.9526 6:0.0066999998 7:0.0024999999 8:0.0024999999 9:0.0066999998 10:0.5 11:0.99330002 12:0.017999999 13:0.73110002 14:0.98199999 15:0.0024999999 16:0.0066999998 17:0.26890001 18:0.047400001 19:0.5 20:0.26890001 #
-4.2793839103288719982742804859299 1:0.017999999 2:0.047400001 3:0.017999999 4:0.0066999998 5:0.017999999 6:0.73110002 7:0.017999999 8:0.0066999998 9:0.5 10:0.1192 11:0.98199999 12:0.88080001 13:0.5 14:0.88080001 15:0.0066999998 16:0.017999999 17:0.017999999 18:0.1192 19:0.9975 20:0.047400001 #
4.2793839103288719982742804859299 1:0.1192 2:0.98199999 3:0.26890001 4:0.99330002 5:0.0024999999 6:0.9526 7:0.88080001 8:0.017999999 9:0.1192 10:0.0024999999 11:0.0066999998 12:0.26890001 13:0.017999999 14:0.0024999999 15:0.017999999 16:0.1192 17:0.047400001 18:0.0024999999 19:0.0066999998 20:0.0066999998 #
-4.2793839103288719982742804859299 1:0.047400001 2:0.0024999999 3:0.5 4:0.88080001 5:0.73110002 6:0.0066999998 7:0.017999999 8:0.017999999 9:0.017999999 10:0.0024999999 11:0.0024999999 12:0.0066999998 13:0.0024999999 14:0.00089999998 15:0.1192 16:0.99910003 17:0.5 18:0.00030000001 19:0.00089999998 20:0.0066999998 #
4.2793839103288719982742804859299 1:0.017999999 2:0.0066999998 3:0.0024999999 4:0.0024999999 5:0.88080001 6:0.0066999998 7:0.0024999999 8:0.0024999999 9:0.0066999998 10:0.88080001 11:0.99330002 12:0.0066999998 13:0.9526 14:0.88080001 15:0.0024999999 16:0.0066999998 17:0.26890001 18:0.017999999 19:0.047400001 20:0.88080001 #
-4.2793839103288719982742804859299 1:0.047400001 2:0.98199999 3:0.017999999 4:0.017999999 5:0.0066999998 6:0.26890001 7:0.5 8:0.0066999998 9:0.26890001 10:0.73110002 11:0.98199999 12:0.1192 13:0.5 14:0.047400001 15:0.017999999 16:0.047400001 17:0.047400001 18:0.017999999 19:0.047400001 20:0.26890001 #
4.2793839103288719982742804859299 1:0.047400001 2:0.9975 3:0.26890001 4:0.73110002 5:0.00089999998 6:0.88080001 7:0.88080001 8:0.0066999998 9:0.26890001 10:0.0024999999 11:0.0024999999 12:0.9526 13:0.0066999998 14:0.0024999999 15:0.0066999998 16:0.047400001 17:0.047400001 18:0.0024999999 19:0.0066999998 20:0.0024999999 #
-4.2793839103288719982742804859299 1:0.0066999998 2:0.9975 3:0.0066999998 4:0.0024999999 5:0.0066999998 6:0.047400001 7:0.0066999998 8:0.0024999999 9:0.0066999998 10:0.1192 11:0.99330002 12:0.5 13:0.26890001 14:0.017999999 15:0.0024999999 16:0.0066999998 17:0.047400001 18:0.0024999999 19:0.0066999998 20:0.017999999 #
4.2793839103288719982742804859299 1:0.1192 2:0.00089999998 3:0.00030000001 4:0.00030000001 5:0.88080001 6:0.00089999998 7:0.00089999998 8:0.0024999999 9:0.00030000001 10:0.9975 11:0.9526 12:0.0024999999 13:0.5 14:0.1192 15:0.00089999998 16:0.0066999998 17:0.047400001 18:0.00089999998 19:0.0066999998 20:0.98199999 #
-4.2793839103288719982742804859299 1:0.047400001 2:0.017999999 3:0.88080001 4:0.88080001 5:1 6:0.047400001 7:0.017999999 8:0.017999999 9:0.017999999 10:0.017999999 11:0.017999999 12:0.017999999 13:0.017999999 14:0.0066999998 15:0.017999999 16:0.5 17:0.26890001 18:0.0066999998 19:0.017999999 20:0.047400001 #
4.2793839103288719982742804859299 1:0.1192 2:0.98199999 3:0.26890001 4:0.99330002 5:0.0024999999 6:0.9526 7:0.88080001 8:0.017999999 9:0.1192 10:0.0024999999 11:0.0066999998 12:0.26890001 13:0.017999999 14:0.0024999999 15:0.017999999 16:0.1192 17:0.047400001 18:0.0024999999 19:0.0066999998 20:0.0066999998 #
-4.2793839103288719982742804859299 1:0.047400001 2:0.73110002 3:0.0066999998 4:0.0066999998 5:0.0066999998 6:0.73110002 7:0.5 8:0.0024999999 9:0.5 10:0.9526 11:0.26890001 12:0.047400001 13:0.1192 14:0.26890001 15:0.0066999998 16:0.017999999 17:0.1192 18:0.0066999998 19:0.26890001 20:0.99330002 #
4.2793839103288719982742804859299 1:0.017999999 2:0.0024999999 3:0.017999999 4:0.00089999998 5:0.99989998 6:0.0024999999 7:0.0024999999 8:0.0066999998 9:0.0024999999 10:0.26890001 11:0.98199999 12:0.0024999999 13:0.73110002 14:0.26890001 15:0.0024999999 16:0.017999999 17:0.017999999 18:0.0066999998 19:0.017999999 20:0.047400001 #
-4.2793839103288719982742804859299 1:0.047400001 2:0.017999999 3:0.88080001 4:0.88080001 5:1 6:0.047400001 7:0.047400001 8:0.017999999 9:0.017999999 10:0.017999999 11:0.017999999 12:0.017999999 13:0.017999999 14:0.0066999998 15:0.017999999 16:0.5 17:0.26890001 18:0.0066999998 19:0.017999999 20:0.047400001 #
4.2793839103288719982742804859299 1:0.5 2:0.88080001 3:0.5 4:0.98199999 5:0.0024999999 6:0.9526 7:0.9526 8:0.1192 9:0.73110002 10:0.0066999998 11:0.0066999998 12:0.5 13:0.017999999 14:0.0024999999 15:0.0066999998 16:0.26890001 17:0.26890001 18:0.0024999999 19:0.017999999 20:0.017999999 #
-4.2793839103288719982742804859299 1:0.1192 2:0.9526 3:0.0066999998 4:0.0024999999 5:0.0066999998 6:0.1192 7:0.0066999998 8:0.0066999998 9:0.047400001 10:0.9526 11:0.98199999 12:0.017999999 13:0.88080001 14:0.9526 15:0.0024999999 16:0.017999999 17:0.017999999 18:0.1192 19:0.5 20:0.5 #
4.2793839103288719982742804859299 1:0.017999999 2:0.0024999999 3:0.017999999 4:0.00089999998 5:0.99989998 6:0.0024999999 7:0.0024999999 8:0.0066999998 9:0.0024999999 10:0.26890001 11:0.98199999 12:0.0024999999 13:0.73110002 14:0.26890001 15:0.0024999999 16:0.017999999 17:0.017999999 18:0.0066999998 19:0.017999999 20:0.047400001 #
-4.2793839103288719982742804859299 1:0.5 2:0.0066999998 3:0.88080001 4:0.9975 5:0.98199999 6:0.017999999 7:0.26890001 8:0.73110002 9:0.26890001 10:0.0024999999 11:0.0024999999 12:0.017999999 13:0.0024999999 14:0.0024999999 15:0.0066999998 16:0.047400001 17:0.047400001 18:0.00089999998 19:0.047400001 20:0.0024999999 #
4.2793839103288719982742804859299 1:0.5 2:0.88080001 3:0.73110002 4:0.9975 5:0.0066999998 6:0.5 7:0.9526 8:0.1192 9:0.5 10:0.0066999998 11:0.0066999998 12:0.26890001 13:0.0066999998 14:0.0024999999 15:0.017999999 16:0.26890001 17:0.1192 18:0.017999999 19:0.0066999998 20:0.0066999998 #
-4.2793839103288719982742804859299 1:0.1192 2:0.5 3:0.017999999 4:0.0066999998 5:0.017999999 6:0.88080001 7:0.047400001 8:0.0066999998 9:0.1192 10:0.73110002 11:0.5 12:0.047400001 13:0.73110002 14:0.047400001 15:0.0066999998 16:0.017999999 17:0.047400001 18:0.0066999998 19:0.047400001 20:0.9975 #
4.2793839103288719982742804859299 1:0.1192 2:0.0024999999 3:0.0024999999 4:0.00089999998 5:0.9526 6:0.0024999999 7:0.0024999999 8:0.00089999998 9:0.017999999 10:0.9526 11:0.98199999 12:0.0024999999 13:0.5 14:0.26890001 15:0.0024999999 16:0.017999999 17:0.1192 18:0.0066999998 19:0.26890001 20:0.9526 #
-4.2793839103288719982742804859299 1:0.0066999998 2:0.0024999999 3:0.98199999 4:0.99910003 5:0.73110002 6:0.0024999999 7:0.0066999998 8:0.0066999998 9:0.017999999 10:0.0066999998 11:0.00030000001 12:0.0066999998 13:0.00089999998 14:0.00030000001 15:0.00089999998 16:0.5 17:0.9526 18:0.00030000001 19:0.0066999998 20:0.00089999998 #
4.2793839103288719982742804859299 1:0.017999999 2:0.9526 3:0.26890001 4:0.9975 5:0.00089999998 6:0.98199999 7:0.73110002 8:0.0066999998 9:0.26890001 10:0.0024999999 11:0.0066999998 12:0.1192 13:0.0024999999 14:0.0066999998 15:0.0066999998 16:0.1192 17:0.017999999 18:0.00089999998 19:0.047400001 20:0.0066999998 #
-4.2793839103288719982742804859299 1:0.047400001 2:0.9526 3:0.017999999 4:0.017999999 5:0.0066999998 6:0.73110002 7:0.26890001 8:0.0066999998 9:0.047400001 10:0.5 11:0.5 12:0.88080001 13:0.26890001 14:0.99330002 15:0.017999999 16:0.047400001 17:0.1192 18:0.1192 19:0.88080001 20:0.5 #
4.2793839103288719982742804859299 1:0.047400001 2:0.0024999999 3:0.0024999999 4:0.0024999999 5:0.99330002 6:0.0066999998 7:0.0024999999 8:0.0024999999 9:0.0066999998 10:0.73110002 11:0.9526 12:0.0066999998 13:0.1192 14:0.047400001 15:0.0024999999 16:0.0066999998 17:0.047400001 18:0.0066999998 19:0.017999999 20:0.9975 #
-4.2793839103288719982742804859299 1:0.017999999 2:0.99330002 3:0.017999999 4:0.0066999998 5:0.0066999998 6:0.047400001 7:0.017999999 8:0.0066999998 9:0.047400001 10:0.1192 11:0.5 12:0.1192 13:0.047400001 14:0.9975 15:0.0066999998 16:0.017999999 17:0.017999999 18:0.047400001 19:0.9526 20:0.73110002 #
4.2793839103288719982742804859299 1:0.047400001 2:0.9526 3:0.88080001 4:0.9526 5:0.0024999999 6:0.73110002 7:0.9526 8:0.047400001 9:0.88080001 10:0.0066999998 11:0.017999999 12:0.88080001 13:0.047400001 14:0.0066999998 15:0.047400001 16:0.26890001 17:0.047400001 18:0.0066999998 19:0.1192 20:0.0066999998 #
-4.2793839103288719982742804859299 1:0.0024999999 2:0.0024999999 3:0.98199999 4:0.99910003 5:0.73110002 6:0.0066999998 7:0.017999999 8:0.017999999 9:0.017999999 10:0.00089999998 11:0.00030000001 12:0.0024999999 13:0.00089999998 14:0.00030000001 15:0.0066999998 16:0.73110002 17:0.9526 18:0.00030000001 19:0.017999999 20:0.00089999998 #
4.2793839103288719982742804859299 1:0.5 2:0.88080001 3:0.9526 4:0.73110002 5:0.0024999999 6:0.88080001 7:0.98199999 8:0.047400001 9:0.1192 10:0.0024999999 11:0.0066999998 12:0.9526 13:0.017999999 14:0.0066999998 15:0.017999999 16:0.1192 17:0.047400001 18:0.0024999999 19:0.017999999 20:0.0066999998 #
-4.2793839103288719982742804859299 1:0.017999999 2:0.9975 3:0.047400001 4:0.017999999 5:0.017999999 6:0.88080001 7:0.1192 8:0.017999999 9:0.047400001 10:0.047400001 11:0.88080001 12:0.73110002 13:0.73110002 14:0.047400001 15:0.017999999 16:0.047400001 17:0.047400001 18:0.017999999 19:0.26890001 20:0.047400001 #
4.2793839103288719982742804859299 1:0.26890001 2:0.0024999999 3:0.00089999998 4:0.0066999998 5:0.99330002 6:0.0024999999 7:0.00089999998 8:0.0024999999 9:0.00089999998 10:0.9526 11:0.99330002 12:0.0024999999 13:0.88080001 14:0.1192 15:0.00089999998 16:0.0066999998 17:0.047400001 18:0.0024999999 19:0.0066999998 20:0.9526 #
-4.2793839103288719982742804859299 1:0.5 2:0.98199999 3:0.017999999 4:0.017999999 5:0.017999999 6:0.1192 7:0.047400001 8:0.017999999 9:0.1192 10:0.9526 11:0.88080001 12:0.5 13:0.88080001 14:0.047400001 15:0.017999999 16:0.047400001 17:0.047400001 18:0.1192 19:0.1192 20:0.5 #
4.2793839103288719982742804859299 1:0.5 2:0.88080001 3:0.9526 4:0.73110002 5:0.0024999999 6:0.88080001 7:0.98199999 8:0.047400001 9:0.1192 10:0.0024999999 11:0.0066999998 12:0.9526 13:0.017999999 14:0.0066999998 15:0.017999999 16:0.1192 17:0.047400001 18:0.0024999999 19:0.017999999 20:0.0066999998 #
-4.2793839103288719982742804859299 1:0.0066999998 2:0.0066999998 3:0.98199999 4:0.9975 5:0.73110002 6:0.0066999998 7:0.017999999 8:0.047400001 9:0.017999999 10:0.0024999999 11:0.00089999998 12:0.017999999 13:0.0024999999 14:0.00089999998 15:0.0024999999 16:0.5 17:0.99330002 18:0.00030000001 19:0.00089999998 20:0.0066999998 #
4.2793839103288719982742804859299 1:0.047400001 2:0.0066999998 3:0.0066999998 4:0.00089999998 5:0.88080001 6:0.0024999999 7:0.017999999 8:0.00089999998 9:0.00089999998 10:0.98199999 11:0.99330002 12:0.017999999 13:0.5 14:0.1192 15:0.00089999998 16:0.017999999 17:0.1192 18:0.1192 19:0.1192 20:0.9526 #
-4.2793839103288719982742804859299 1:0.017999999 2:0.88080001 3:0.047400001 4:0.0066999998 5:0.017999999 6:0.1192 7:0.017999999 8:0.0024999999 9:0.047400001 10:0.9526 11:0.99330002 12:0.047400001 13:0.26890001 14:0.1192 15:0.0066999998 16:0.017999999 17:0.047400001 18:0.0066999998 19:0.017999999 20:0.5 #
4.2793839103288719982742804859299 1:0.5 2:0.88080001 3:0.9526 4:0.73110002 5:0.0024999999 6:0.88080001 7:0.98199999 8:0.047400001 9:0.1192 10:0.0024999999 11:0.0066999998 12:0.9526 13:0.017999999 14:0.0066999998 15:0.017999999 16:0.1192 17:0.047400001 18:0.0024999999 19:0.017999999 20:0.0066999998 #
-4.2793839103288719982742804859299 1:0.017999999 2:0.00089999998 3:0.0024999999 4:0.5 5:1 6:0.00089999998 7:0.00089999998 8:0.0024999999 9:0.00089999998 10:0.0066999998 11:0.0066999998 12:0.00089999998 13:0.0066999998 14:0.0024999999 15:0.00089999998 16:0.017999999 17:0.0066999998 18:0.0024999999 19:0.0024999999 20:0.0066999998 #
4.2793839103288719982742804859299 1:0.1192 2:0.0024999999 3:0.0024999999 4:0.0024999999 5:0.9526 6:0.0066999998 7:0.0024999999 8:0.0024999999 9:0.0024999999 10:0.99910003 11:0.73110002 12:0.0066999998 13:0.5 14:0.047400001 15:0.0066999998 16:0.017999999 17:0.047400001 18:0.0066999998 19:0.017999999 20:0.9526 #
-4.2793839103288719982742804859299 1:0.047400001 2:0.99910003 3:0.047400001 4:0.017999999 5:0.0066999998 6:0.26890001 7:0.1192 8:0.0066999998 9:0.047400001 10:0.1192 11:0.5 12:0.73110002 13:0.98199999 14:0.017999999 15:0.017999999 16:0.047400001 17:0.047400001 18:0.017999999 19:0.017999999 20:0.047400001 #
4.2793839103288719982742804859299 1:0.1192 2:0.9526 3:0.5 4:0.9526 5:0.0066999998 6:0.88080001 7:0.9526 8:0.017999999 9:0.98199999 10:0.0024999999 11:0.017999999 12:0.88080001 13:0.047400001 14:0.0066999998 15:0.017999999 16:0.1192 17:0.047400001 18:0.0024999999 19:0.047400001 20:0.0066999998 #
-4.2793839103288719982742804859299 1:0.99330002 2:0.0024999999 3:0.017999999 4:0.99910003 5:0.5 6:0.0066999998 7:0.017999999 8:0.0066999998 9:0.0024999999 10:0.00089999998 11:0.00089999998 12:0.0024999999 13:0.00089999998 14:0.00089999998 15:0.0024999999 16:0.26890001 17:0.0066999998 18:0.00030000001 19:0.0066999998 20:0.0066999998 #
4.2793839103288719982742804859299 1:0.0066999998 2:0.00089999998 3:0.00030000001 4:0.00030000001 5:0.88080001 6:0.0024999999 7:0.00089999998 8:0.00030000001 9:0.00089999998 10:0.1192 11:0.99330002 12:0.00089999998 13:0.99970001 14:0.0066999998 15:0.00030000001 16:0.017999999 17:0.0024999999 18:0.00089999998 19:0.0024999999 20:0.047400001 #
-4.2793839103288719982742804859299 1:0.0024999999 2:0.99970001 3:0.047400001 4:0.0024999999 5:0.0024999999 6:0.047400001 7:0.0066999998 8:0.00089999998 9:0.73110002 10:0.017999999 11:0.73110002 12:0.047400001 13:0.5 14:0.73110002 15:0.00089999998 16:0.0066999998 17:0.047400001 18:0.26890001 19:0.26890001 20:0.017999999 #
4.2793839103288719982742804859299 1:0.26890001 2:0.73110002 3:0.26890001 4:0.98199999 5:0.0024999999 6:0.98199999 7:0.98199999 8:0.0066999998 9:0.88080001 10:0.0024999999 11:0.0066999998 12:0.5 13:0.017999999 14:0.00089999998 15:0.017999999 16:0.26890001 17:0.26890001 18:0.0024999999 19:0.0066999998 20:0.0066999998 #
-4.2793839103288719982742804859299 1:0.017999999 2:0.0024999999 3:0.9526 4:0.0066999998 5:1 6:0.0024999999 7:0.0024999999 8:0.1192 9:0.0024999999 10:0.0066999998 11:0.0066999998 12:0.0024999999 13:0.0066999998 14:0.0024999999 15:0.0024999999 16:0.73110002 17:0.017999999 18:0.0024999999 19:0.0024999999 20:0.0066999998 #
4.2793839103288719982742804859299 1:0.26890001 2:0.9526 3:0.26890001 4:0.73110002 5:0.0024999999 6:0.9526 7:0.98199999 8:0.26890001 9:0.017999999 10:0.0024999999 11:0.0024999999 12:0.98199999 13:0.017999999 14:0.0024999999 15:0.0066999998 16:0.1192 17:0.047400001 18:0.0024999999 19:0.0066999998 20:0.0024999999 #
-4.2793839103288719982742804859299 1:0.017999999 2:0.99910003 3:0.017999999 4:0.0066999998 5:0.0024999999 6:0.1192 7:0.0066999998 8:0.0066999998 9:0.047400001 10:0.26890001 11:0.9526 12:0.1192 13:0.1192 14:0.047400001 15:0.017999999 16:0.0066999998 17:0.0066999998 18:0.047400001 19:0.017999999 20:0.047400001 #
4.2793839103288719982742804859299 1:0.047400001 2:0.0066999998 3:0.0024999999 4:0.0024999999 5:0.88080001 6:0.0066999998 7:0.0066999998 8:0.0024999999 9:0.0066999998 10:0.98199999 11:0.99330002 12:0.0066999998 13:0.5 14:0.26890001 15:0.0066999998 16:0.017999999 17:0.1192 18:0.017999999 19:0.047400001 20:0.26890001 #
-4.2793839103288719982742804859299 1:0.017999999 2:0.26890001 3:0.017999999 4:0.0066999998 5:0.047400001 6:0.1192 7:0.017999999 8:0.0024999999 9:0.99330002 10:0.73110002 11:0.26890001 12:0.9975 13:0.73110002 14:0.017999999 15:0.0066999998 16:0.017999999 17:0.017999999 18:0.0024999999 19:0.047400001 20:0.26890001 #
4.2793839103288719982742804859299 1:0.26890001 2:0.98199999 3:0.98199999 4:0.88080001 5:0.0066999998 6:0.9526 7:0.1192 8:0.017999999 9:0.5 10:0.0066999998 11:0.0066999998 12:0.1192 13:0.017999999 14:0.0024999999 15:0.5 16:0.73110002 17:0.26890001 18:0.0024999999 19:0.017999999 20:0.0066999998 #
-4.2793839103288719982742804859299 1:0.017999999 2:0.0024999999 3:0.9526 4:0.0066999998 5:1 6:0.0024999999 7:0.0024999999 8:0.1192 9:0.0024999999 10:0.0066999998 11:0.0066999998 12:0.0024999999 13:0.0066999998 14:0.0024999999 15:0.0024999999 16:0.73110002 17:0.017999999 18:0.0024999999 19:0.0024999999 20:0.0066999998 #
4.2793839103288719982742804859299 1:0.047400001 2:0.0066999998 3:0.0024999999 4:0.0024999999 5:0.88080001 6:0.0066999998 7:0.0066999998 8:0.0024999999 9:0.0066999998 10:0.98199999 11:0.99330002 12:0.0066999998 13:0.5 14:0.26890001 15:0.0066999998 16:0.017999999 17:0.1192 18:0.017999999 19:0.047400001 20:0.26890001 #
-4.2793839103288719982742804859299 1:0.0066999998 2:0.98199999 3:0.0066999998 4:0.0024999999 5:0.0066999998 6:0.1192 7:0.0066999998 8:0.00089999998 9:0.017999999 10:0.9526 11:0.99330002 12:0.047400001 13:0.73110002 14:0.017999999 15:0.0024999999 16:0.0024999999 17:0.017999999 18:0.5 19:0.0066999998 20:0.26890001 #
4.2793839103288719982742804859299 1:0.1192 2:0.73110002 3:0.99910003 4:0.73110002 5:0.0024999999 6:0.5 7:0.26890001 8:0.047400001 9:0.1192 10:0.0024999999 11:0.0024999999 12:0.9526 13:0.0066999998 14:0.0024999999 15:0.017999999 16:0.1192 17:0.047400001 18:0.0024999999 19:0.0066999998 20:0.0066999998 #
-4.2793839103288719982742804859299 1:0.017999999 2:0.0066999998 3:0.9975 4:0.017999999 5:1 6:0.0066999998 7:0.0066999998 8:0.1192 9:0.0066999998 10:0.0066999998 11:0.0066999998 12:0.0066999998 13:0.0066999998 14:0.0024999999 15:0.0024999999 16:0.5 17:0.017999999 18:0.0024999999 19:0.0024999999 20:0.0066999998 #
4.2793839103288719982742804859299 1:0.0066999998 2:0.0024999999 3:0.00089999998 4:0.00089999998 5:0.88080001 6:0.0024999999 7:0.00089999998 8:0.00089999998 9:0.047400001 10:0.9526 11:0.9975 12:0.0024999999 13:0.26890001 14:0.1192 15:0.00089999998 16:0.0024999999 17:0.017999999 18:0.0024999999 19:0.0066999998 20:0.26890001 #
-4.2793839103288719982742804859299 1:0.047400001 2:0.5 3:0.017999999 4:0.0066999998 5:0.0024999999 6:0.99910003 7:0.047400001 8:0.0024999999 9:0.98199999 10:0.5 11:0.26890001 12:0.1192 13:0.047400001 14:0.017999999 15:0.0024999999 16:0.017999999 17:0.017999999 18:0.047400001 19:0.0066999998 20:0.9526 #
4.2793839103288719982742804859299 1:0.88080001 2:0.88080001 3:0.73110002 4:0.99330002 5:0.0066999998 6:0.73110002 7:0.73110002 8:0.26890001 9:0.1192 10:0.0066999998 11:0.0066999998 12:0.5 13:0.017999999 14:0.0024999999 15:0.017999999 16:0.73110002 17:0.047400001 18:0.0024999999 19:0.0066999998 20:0.0066999998 #
-4.2793839103288719982742804859299 1:0.047400001 2:0.26890001 3:0.017999999 4:0.017999999 5:0.0066999998 6:0.1192 7:0.047400001 8:0.017999999 9:0.017999999 10:0.047400001 11:0.9526 12:0.9975 13:0.9526 14:0.017999999 15:0.017999999 16:0.017999999 17:0.047400001 18:0.0066999998 19:0.017999999 20:0.047400001 #
4.2793839103288719982742804859299 1:0.017999999 2:0.0066999998 3:0.0024999999 4:0.0024999999 5:0.9526 6:0.0066999998 7:0.0066999998 8:0.0024999999 9:0.0024999999 10:0.99330002 11:0.73110002 12:0.0066999998 13:0.1192 14:0.047400001 15:0.0066999998 16:0.0066999998 17:0.047400001 18:0.0066999998 19:0.017999999 20:0.99330002 #
-4.2793839103288719982742804859299 1:0.017999999 2:0.0066999998 3:0.9975 4:0.017999999 5:1 6:0.0066999998 7:0.0066999998 8:0.1192 9:0.0066999998 10:0.0066999998 11:0.0066999998 12:0.0066999998 13:0.0066999998 14:0.0024999999 15:0.0024999999 16:0.5 17:0.017999999 18:0.0024999999 19:0.0024999999 20:0.0066999998 #
4.2793839103288719982742804859299 1:0.047400001 2:0.99330002 3:0.9526 4:0.5 5:0.0024999999 6:0.88080001 7:0.5 8:0.047400001 9:0.1192 10:0.0066999998 11:0.0066999998 12:0.9526 13:0.017999999 14:0.0024999999 15:0.017999999 16:0.5 17:0.047400001 18:0.0024999999 19:0.017999999 20:0.017999999 #
-4.2793839103288719982742804859299 1:0.047400001 2:0.5 3:0.017999999 4:0.0066999998 5:0.0024999999 6:0.99910003 7:0.047400001 8:0.0024999999 9:0.98199999 10:0.5 11:0.26890001 12:0.1192 13:0.047400001 14:0.017999999 15:0.0024999999 16:0.017999999 17:0.017999999 18:0.047400001 19:0.0066999998 20:0.9526 #
4.2793839103288719982742804859299 1:0.26890001 2:0.88080001 3:0.88080001 4:0.98199999 5:0.017999999 6:0.73110002 7:0.88080001 8:0.1192 9:0.73110002 10:0.0066999998 11:0.0066999998 12:0.88080001 13:0.047400001 14:0.0066999998 15:0.1192 16:0.73110002 17:0.26890001 18:0.0066999998 19:0.017999999 20:0.017999999 #
-4.2793839103288719982742804859299 1:0.1192 2:0.0024999999 3:0.047400001 4:0.9975 5:0.73110002 6:0.0066999998 7:0.017999999 8:0.017999999 9:0.0024999999 10:0.017999999 11:0.047400001 12:0.0066999998 13:0.0066999998 14:0.00089999998 15:0.0024999999 16:0.1192 17:0.9975 18:0.00089999998 19:0.0024999999 20:0.047400001 #
4.2793839103288719982742804859299 1:0.047400001 2:0.0066999998 3:0.0066999998 4:0.0024999999 5:0.88080001 6:0.0066999998 7:0.0066999998 8:0.0066999998 9:0.0024999999 10:0.99330002 11:0.88080001 12:0.0066999998 13:0.26890001 14:0.1192 15:0.0066999998 16:0.017999999 17:0.1192 18:0.0066999998 19:0.017999999 20:0.99330002 #
-4.2793839103288719982742804859299 1:0.0066999998 2:0.98199999 3:0.0066999998 4:0.0066999998 5:0.0066999998 6:0.1192 7:0.0066999998 8:0.00089999998 9:0.017999999 10:0.9526 11:0.99330002 12:0.047400001 13:0.73110002 14:0.017999999 15:0.0024999999 16:0.0024999999 17:0.017999999 18:0.5 19:0.0066999998 20:0.26890001 #
4.2793839103288719982742804859299 1:0.047400001 2:0.73110002 3:0.88080001 4:0.73110002 5:0.0024999999 6:0.5 7:0.9975 8:0.1192 9:0.5 10:0.0024999999 11:0.0024999999 12:0.5 13:0.047400001 14:0.0066999998 15:0.047400001 16:0.88080001 17:0.047400001 18:0.0024999999 19:0.017999999 20:0.0066999998 #
-4.2793839103288719982742804859299 1:0.0024999999 2:0.0066999998 3:0.99989998 4:0.047400001 5:0.98199999 6:0.0066999998 7:0.0066999998 8:0.0066999998 9:0.017999999 10:0.00030000001 11:0.00030000001 12:0.0066999998 13:0.00089999998 14:0.00030000001 15:0.00089999998 16:0.017999999 17:0.0066999998 18:0.00030000001 19:0.00089999998 20:0.00089999998 #
4.2793839103288719982742804859299 1:0.1192 2:0.0066999998 3:0.0066999998 4:0.0066999998 5:0.99910003 6:0.0066999998 7:0.0066999998 8:0.047400001 9:0.0066999998 10:0.73110002 11:0.99330002 12:0.0066999998 13:0.73110002 14:0.26890001 15:0.0066999998 16:0.047400001 17:0.1192 18:0.017999999 19:0.017999999 20:0.1192 #
-4.2793839103288719982742804859299 1:0.0066999998 2:0.99910003 3:0.0066999998 4:0.00089999998 5:0.00030000001 6:0.5 7:0.0024999999 8:0.017999999 9:0.0066999998 10:0.0024999999 11:0.9526 12:0.88080001 13:0.1192 14:0.00089999998 15:0.73110002 16:0.0024999999 17:0.0024999999 18:0.00030000001 19:0.0024999999 20:0.0024999999 #
4.2793839103288719982742804859299 1:0.26890001 2:0.88080001 3:0.9526 4:0.5 5:0.0024999999 6:0.73110002 7:0.5 8:0.99330002 9:0.1192 10:0.0024999999 11:0.0024999999 12:0.88080001 13:0.0066999998 14:0.0024999999 15:0.0066999998 16:0.1192 17:0.047400001 18:0.0024999999 19:0.0024999999 20:0.0024999999 #
-4.2793839103288719982742804859299 1:0.0066999998 2:0.0024999999 3:0.99910003 4:0.017999999 5:0.99330002 6:0.0066999998 7:0.0066999998 8:0.1192 9:0.0066999998 10:0.00089999998 11:0.00030000001 12:0.0066999998 13:0.047400001 14:0.00030000001 15:0.00089999998 16:0.98199999 17:0.017999999 18:0.00030000001 19:0.00089999998 20:0.017999999 #
4.2793839103288719982742804859299 1:0.047400001 2:0.017999999 3:0.0024999999 4:0.0024999999 5:0.9526 6:0.017999999 7:0.0066999998 8:0.0024999999 9:0.017999999 10:0.9526 11:0.98199999 12:0.0066999998 13:0.26890001 14:0.1192 15:0.0066999998 16:0.017999999 17:0.047400001 18:0.0066999998 19:0.017999999 20:0.98199999 #
-4.2793839103288719982742804859299 1:0.0066999998 2:0.0024999999 3:0.0024999999 4:0.0066999998 5:0.0024999999 6:0.017999999 7:0.99330002 8:0.00089999998 9:0.0024999999 10:0.99910003 11:0.017999999 12:0.0066999998 13:0.017999999 14:0.0066999998 15:0.0024999999 16:0.0066999998 17:0.0066999998 18:0.00089999998 19:0.0024999999 20:0.1192 #
4.2793839103288719982742804859299 1:0.1192 2:0.88080001 3:0.98199999 4:0.73110002 5:0.017999999 6:0.5 7:0.26890001 8:0.047400001 9:0.5 10:0.0066999998 11:0.0066999998 12:0.9975 13:0.017999999 14:0.0066999998 15:0.047400001 16:0.1192 17:0.047400001 18:0.0066999998 19:0.017999999 20:0.0066999998 #
-4.2793839103288719982742804859299 1:0.5 2:0.88080001 3:0.017999999 4:0.0066999998 5:0.017999999 6:0.047400001 7:0.047400001 8:0.0066999998 9:0.017999999 10:0.1192 11:0.99330002 12:0.9526 13:0.26890001 14:0.26890001 15:0.017999999 16:0.047400001 17:0.047400001 18:0.017999999 19:0.047400001 20:0.1192 #
4.2793839103288719982742804859299 1:0.017999999 2:0.0024999999 3:0.0024999999 4:0.0024999999 5:0.73110002 6:0.0024999999 7:0.0024999999 8:0.00089999998 9:0.0024999999 10:0.99910003 11:0.9526 12:0.0024999999 13:0.26890001 14:0.047400001 15:0.017999999 16:0.0066999998 17:0.047400001 18:0.0066999998 19:0.017999999 20:0.73110002 #
-4.2793839103288719982742804859299 1:0.1192 2:0.017999999 3:0.99970001 4:0.1192 5:0.9526 6:0.047400001 7:0.017999999 8:0.73110002 9:0.047400001 10:0.0024999999 11:0.0024999999 12:0.017999999 13:0.0066999998 14:0.0024999999 15:0.0066999998 16:0.5 17:0.1192 18:0.00089999998 19:0.0066999998 20:0.0024999999 #
4.2793839103288719982742804859299 1:0.1192 2:0.73110002 3:0.73110002 4:0.9526 5:0.0066999998 6:0.9526 7:0.88080001 8:0.5 9:0.1192 10:0.0066999998 11:0.0066999998 12:0.73110002 13:0.017999999 14:0.0066999998 15:0.047400001 16:0.73110002 17:0.5 18:0.0066999998 19:0.017999999 20:0.017999999 #
-4.2793839103288719982742804859299 1:0.017999999 2:0.88080001 3:0.0066999998 4:0.0066999998 5:0.0024999999 6:0.9975 7:0.047400001 8:0.0024999999 9:0.047400001 10:0.5 11:0.047400001 12:0.98199999 13:0.047400001 14:0.0066999998 15:0.0024999999 16:0.0066999998 17:0.017999999 18:0.0024999999 19:0.1192 20:0.9526 #
4.2793839103288719982742804859299 1:0.047400001 2:0.00089999998 3:0.00089999998 4:0.00030000001 5:1 6:0.00089999998 7:0.00030000001 8:0.0024999999 9:0.00089999998 10:0.99330002 11:0.5 12:0.00089999998 13:0.017999999 14:0.0066999998 15:0.00089999998 16:0.0024999999 17:0.0066999998 18:0.00089999998 19:0.0024999999 20:0.73110002 #
-4.2793839103288719982742804859299 1:0.1192 2:0.0024999999 3:0.047400001 4:0.9975 5:0.73110002 6:0.0066999998 7:0.017999999 8:0.017999999 9:0.0024999999 10:0.017999999 11:0.047400001 12:0.0066999998 13:0.0066999998 14:0.00089999998 15:0.0024999999 16:0.1192 17:0.9975 18:0.00089999998 19:0.0024999999 20:0.047400001 #
4.2793839103288719982742804859299 1:0.26890001 2:0.73110002 3:0.73110002 4:0.99330002 5:0.0024999999 6:0.88080001 7:0.9526 8:0.1192 9:0.5 10:0.017999999 11:0.017999999 12:0.73110002 13:0.017999999 14:0.0024999999 15:0.017999999 16:0.5 17:0.26890001 18:0.0066999998 19:0.047400001 20:0.0066999998 #
-4.2793839103288719982742804859299 1:0.017999999 2:0.26890001 3:0.1192 4:0.0024999999 5:0.0024999999 6:0.9526 7:0.0066999998 8:0.00089999998 9:0.99330002 10:0.99910003 11:0.1192 12:0.017999999 13:0.26890001 14:0.1192 15:0.0024999999 16:0.0024999999 17:0.017999999 18:0.0024999999 19:0.017999999 20:0.5 #
4.2793839103288719982742804859299 1:0.1192 2:0.0024999999 3:0.0024999999 4:0.0024999999 5:0.98199999 6:0.0066999998 7:0.0024999999 8:0.0024999999 9:0.0024999999 10:0.99330002 11:0.5 12:0.0066999998 13:0.26890001 14:0.047400001 15:0.0066999998 16:0.0066999998 17:0.047400001 18:0.0024999999 19:0.017999999 20:0.9975 #
-4.2793839103288719982742804859299 1:0.047400001 2:0.017999999 3:0.88080001 4:0.99330002 5:0.99970001 6:0.047400001 7:0.047400001 8:0.017999999 9:0.1192 10:0.0066999998 11:0.0066999998 12:0.047400001 13:0.0066999998 14:0.0024999999 15:0.0066999998 16:0.88080001 17:0.73110002 18:0.0024999999 19:0.0066999998 20:0.017999999 #
4.2793839103288719982742804859299 1:0.5 2:0.88080001 3:0.88080001 4:0.98199999 5:0.0024999999 6:0.88080001 7:0.98199999 8:0.017999999 9:0.26890001 10:0.0066999998 11:0.0066999998 12:0.73110002 13:0.047400001 14:0.0024999999 15:0.017999999 16:0.5 17:0.26890001 18:0.0024999999 19:0.017999999 20:0.017999999 #
-4.2793839103288719982742804859299 1:0.1192 2:0.26890001 3:0.0066999998 4:0.0024999999 5:0.0066999998 6:0.017999999 7:0.017999999 8:0.0024999999 9:0.0066999998 10:0.26890001 11:0.9975 12:0.9526 13:0.5 14:0.1192 15:0.0066999998 16:0.017999999 17:0.017999999 18:0.0066999998 19:0.047400001 20:0.1192 #
4.2793839103288719982742804859299 1:0.1192 2:0.0066999998 3:0.0024999999 4:0.0024999999 5:0.9526 6:0.0066999998 7:0.0066999998 8:0.0024999999 9:0.0024999999 10:0.99330002 11:0.5 12:0.0066999998 13:0.5 14:0.047400001 15:0.0066999998 16:0.017999999 17:0.047400001 18:0.0066999998 19:0.017999999 20:0.99330002 #
-4.2793839103288719982742804859299 1:0.017999999 2:0.73110002 3:0.0066999998 4:0.017999999 5:0.0024999999 6:0.88080001 7:0.99330002 8:0.0024999999 9:0.0066999998 10:0.98199999 11:0.26890001 12:0.1192 13:0.047400001 14:0.0066999998 15:0.0066999998 16:0.017999999 17:0.017999999 18:0.0024999999 19:0.0066999998 20:0.73110002 #
4.2793839103288719982742804859299 1:0.26890001 2:0.9526 3:0.73110002 4:0.9526 5:0.0066999998 6:0.5 7:0.98199999 8:0.047400001 9:0.26890001 10:0.0066999998 11:0.0066999998 12:0.88080001 13:0.0024999999 14:0.0024999999 15:0.047400001 16:0.26890001 17:0.26890001 18:0.1192 19:0.047400001 20:0.0066999998 #
-4.2793839103288719982742804859299 1:0.047400001 2:0.0024999999 3:0.99970001 4:0.017999999 5:0.88080001 6:0.0066999998 7:0.0066999998 8:0.0066999998 9:0.0066999998 10:0.00030000001 11:0.00030000001 12:0.0066999998 13:0.00089999998 14:0.00030000001 15:0.00089999998 16:0.9526 17:0.88080001 18:9.9999997e-05 19:0.00089999998 20:0.00089999998 #
4.2793839103288719982742804859299 1:0.047400001 2:0.0024999999 3:0.0024999999 4:0.00089999998 5:0.73110002 6:0.0024999999 7:0.0024999999 8:0.00089999998 9:0.0024999999 10:0.9975 11:0.88080001 12:0.0024999999 13:0.26890001 14:0.047400001 15:0.0024999999 16:0.0066999998 17:0.017999999 18:0.0024999999 19:0.0066999998 20:0.99330002 #
-4.2793839103288719982742804859299 1:0.017999999 2:0.73110002 3:0.0066999998 4:0.017999999 5:0.0024999999 6:0.88080001 7:0.99330002 8:0.0024999999 9:0.0066999998 10:0.98199999 11:0.26890001 12:0.1192 13:0.047400001 14:0.0066999998 15:0.0066999998 16:0.017999999 17:0.017999999 18:0.0024999999 19:0.0066999998 20:0.73110002 #
4.2793839103288719982742804859299 1:0.26890001 2:0.9526 3:0.73110002 4:0.9526 5:0.0066999998 6:0.5 7:0.98199999 8:0.047400001 9:0.26890001 10:0.0066999998 11:0.0066999998 12:0.88080001 13:0.0024999999 14:0.0024999999 15:0.047400001 16:0.26890001 17:0.26890001 18:0.1192 19:0.047400001 20:0.0066999998 #
-4.2793839103288719982742804859299 1:0.047400001 2:0.0024999999 3:0.99970001 4:0.017999999 5:0.88080001 6:0.0066999998 7:0.0066999998 8:0.0066999998 9:0.0066999998 10:0.00030000001 11:0.00030000001 12:0.0066999998 13:0.00089999998 14:0.00030000001 15:0.00089999998 16:0.9526 17:0.88080001 18:9.9999997e-05 19:0.00089999998 20:0.00089999998 #
4.2793839103288719982742804859299 1:0.047400001 2:0.9526 3:0.98199999 4:0.5 5:0.0066999998 6:0.88080001 7:0.26890001 8:0.5 9:0.5 10:0.0066999998 11:0.0066999998 12:0.99330002 13:0.017999999 14:0.0066999998 15:0.017999999 16:0.26890001 17:0.1192 18:0.0066999998 19:0.017999999 20:0.0066999998 #
-4.2793839103288719982742804859299 1:0.047400001 2:0.017999999 3:0.0066999998 4:0.017999999 5:0.0066999998 6:0.9526 7:0.9526 8:0.0024999999 9:0.047400001 10:0.73110002 11:0.1192 12:0.017999999 13:0.1192 14:0.0066999998 15:0.0066999998 16:0.017999999 17:0.047400001 18:0.0024999999 19:0.0066999998 20:0.9975 #
4.2793839103288719982742804859299 1:0.047400001 2:0.0066999998 3:0.0024999999 4:0.0024999999 5:0.73110002 6:0.0066999998 7:0.0024999999 8:0.0024999999 9:0.0024999999 10:0.9975 11:0.73110002 12:0.0066999998 13:0.9526 14:0.047400001 15:0.0066999998 16:0.0066999998 17:0.047400001 18:0.0066999998 19:0.017999999 20:0.98199999 #
-4.2793839103288719982742804859299 1:0.1192 2:0.0024999999 3:0.99970001 4:0.017999999 5:0.88080001 6:0.0066999998 7:0.0066999998 8:0.0066999998 9:0.0066999998 10:0.00030000001 11:0.00030000001 12:0.0066999998 13:0.00089999998 14:0.00030000001 15:0.00089999998 16:0.9526 17:0.88080001 18:0.00030000001 19:0.00089999998 20:0.00089999998 #
4.2793839103288719982742804859299 1:0.5 2:0.88080001 3:0.88080001 4:0.73110002 5:0.0024999999 6:0.5 7:0.9526 8:0.1192 9:0.73110002 10:0.0024999999 11:0.0024999999 12:0.98199999 13:0.0066999998 14:0.00089999998 15:0.017999999 16:0.26890001 17:0.73110002 18:0.00089999998 19:0.017999999 20:0.0066999998 #
-4.2793839103288719982742804859299 1:0.017999999 2:0.88080001 3:0.017999999 4:0.0066999998 5:0.0024999999 6:0.047400001 7:0.047400001 8:0.0066999998 9:0.047400001 10:0.017999999 11:0.9526 12:0.99910003 13:0.1192 14:0.0066999998 15:0.0066999998 16:0.017999999 17:0.017999999 18:0.0024999999 19:0.0066999998 20:0.017999999 #
4.2793839103288719982742804859299 1:0.047400001 2:0.0066999998 3:0.0066999998 4:0.0066999998 5:0.88080001 6:0.0066999998 7:0.0066999998 8:0.0024999999 9:0.0066999998 10:0.99910003 11:0.73110002 12:0.0066999998 13:0.26890001 14:0.1192 15:0.0066999998 16:0.017999999 17:0.047400001 18:0.017999999 19:0.047400001 20:0.73110002 #
-4.2793839103288719982742804859299 1:0.0066999998 2:0.26890001 3:0.1192 4:0.0024999999 5:0.0024999999 6:0.9526 7:0.0066999998 8:0.00089999998 9:0.99330002 10:0.99910003 11:0.1192 12:0.017999999 13:0.26890001 14:0.1192 15:0.0024999999 16:0.0024999999 17:0.017999999 18:0.017999999 19:0.017999999 20:0.5 #
4.2793839103288719982742804859299 1:0.5 2:0.5 3:0.88080001 4:0.98199999 5:0.0066999998 6:0.73110002 7:0.88080001 8:0.5 9:0.5 10:0.0066999998 11:0.0066999998 12:0.88080001 13:0.017999999 14:0.0066999998 15:0.017999999 16:0.73110002 17:0.1192 18:0.0024999999 19:0.017999999 20:0.0066999998 #
-4.2793839103288719982742804859299 1:0.5 2:0.017999999 3:0.9526 4:0.047400001 5:0.99910003 6:0.017999999 7:0.017999999 8:0.99330002 9:0.017999999 10:0.0066999998 11:0.0066999998 12:0.017999999 13:0.0066999998 14:0.0066999998 15:0.0066999998 16:0.26890001 17:0.047400001 18:0.0066999998 19:0.0066999998 20:0.0066999998 #
4.2793839103288719982742804859299 1:0.1192 2:0.88080001 3:0.88080001 4:0.88080001 5:0.0066999998 6:0.73110002 7:0.9526 8:0.047400001 9:0.73110002 10:0.0066999998 11:0.017999999 12:0.98199999 13:0.047400001 14:0.0066999998 15:0.1192 16:0.5 17:0.26890001 18:0.017999999 19:0.047400001 20:0.017999999 #
-4.2793839103288719982742804859299 1:0.73110002 2:0.0024999999 3:0.88080001 4:0.1192 5:0.98199999 6:0.017999999 7:0.017999999 8:0.26890001 9:0.0024999999 10:0.0024999999 11:0.00089999998 12:0.0066999998 13:0.0066999998 14:0.00089999998 15:0.0066999998 16:0.9975 17:0.5 18:0.00030000001 19:0.00089999998 20:0.047400001 #
4.2793839103288719982742804859299 1:0.047400001 2:0.0024999999 3:0.0024999999 4:0.0024999999 5:0.9526 6:0.0024999999 7:0.0024999999 8:0.0024999999 9:0.0024999999 10:0.9526 11:0.5 12:0.0024999999 13:0.047400001 14:0.017999999 15:0.0024999999 16:0.0066999998 17:0.047400001 18:0.0024999999 19:0.0066999998 20:0.99910003 #
-4.2793839103288719982742804859299 1:0.017999999 2:0.26890001 3:0.017999999 4:0.0066999998 5:0.0066999998 6:0.26890001 7:0.047400001 8:0.0066999998 9:0.9526 10:0.73110002 11:0.73110002 12:0.9975 13:0.26890001 14:0.1192 15:0.0066999998 16:0.017999999 17:0.017999999 18:0.9975 19:0.1192 20:0.5 #
4.2793839103288719982742804859299 1:0.1192 2:0.9526 3:0.9975 4:0.5 5:0.017999999 6:0.73110002 7:0.5 8:0.26890001 9:0.26890001 10:0.0066999998 11:0.0066999998 12:0.73110002 13:0.017999999 14:0.0024999999 15:0.0066999998 16:0.5 17:0.1192 18:0.0024999999 19:0.0066999998 20:0.0024999999 #
-4.2793839103288719982742804859299 1:0.0066999998 2:0.26890001 3:0.1192 4:0.0024999999 5:0.0024999999 6:0.9526 7:0.0066999998 8:0.00089999998 9:0.99330002 10:0.99910003 11:0.1192 12:0.017999999 13:0.26890001 14:0.1192 15:0.0024999999 16:0.0024999999 17:0.017999999 18:0.017999999 19:0.017999999 20:0.5 #
4.2793839103288719982742804859299 1:0.1192 2:0.0066999998 3:0.0066999998 4:0.0066999998 5:0.9975 6:0.0066999998 7:0.0066999998 8:0.047400001 9:0.0066999998 10:0.99330002 11:0.73110002 12:0.0066999998 13:0.5 14:0.047400001 15:0.0066999998 16:0.047400001 17:0.1192 18:0.0066999998 19:0.017999999 20:0.9526 #
-4.2793839103288719982742804859299 1:0.0066999998 2:0.00089999998 3:0.99330002 4:0.0066999998 5:1 6:0.0024999999 7:0.00089999998 8:0.0024999999 9:0.0024999999 10:0.0024999999 11:0.0024999999 12:0.0024999999 13:0.0024999999 14:0.00089999998 15:0.26890001 16:0.017999999 17:0.017999999 18:0.00089999998 19:0.00089999998 20:0.0024999999 #
4.2793839103288719982742804859299 1:0.5 2:0.73110002 3:0.88080001 4:0.88080001 5:0.0066999998 6:0.88080001 7:0.9526 8:0.047400001 9:0.73110002 10:0.0066999998 11:0.017999999 12:0.9526 13:0.017999999 14:0.0066999998 15:0.047400001 16:0.5 17:0.26890001 18:0.0066999998 19:0.017999999 20:0.017999999 #
-4.2793839103288719982742804859299 1:0.017999999 2:0.1192 3:0.017999999 4:0.0066999998 5:0.0066999998 6:0.1192 7:0.1192 8:0.0066999998 9:0.017999999 10:0.047400001 11:0.5 12:0.9975 13:0.99970001 14:0.017999999 15:0.0066999998 16:0.017999999 17:0.017999999 18:0.0066999998 19:0.017999999 20:0.047400001 #
4.2793839103288719982742804859299 1:0.1192 2:0.017999999 3:0.0066999998 4:0.0066999998 5:0.9975 6:0.017999999 7:0.0066999998 8:0.017999999 9:0.0066999998 10:0.9526 11:0.98199999 12:0.017999999 13:0.73110002 14:0.1192 15:0.0066999998 16:0.017999999 17:0.047400001 18:0.017999999 19:0.047400001 20:0.73110002 #
-4.2793839103288719982742804859299 1:0.047400001 2:0.73110002 3:0.017999999 4:0.017999999 5:0.017999999 6:0.26890001 7:0.26890001 8:0.0024999999 9:0.017999999 10:0.73110002 11:0.73110002 12:0.26890001 13:0.1192 14:0.047400001 15:0.017999999 16:0.047400001 17:0.047400001 18:0.047400001 19:0.5 20:0.9975 #
4.2793839103288719982742804859299 1:0.047400001 2:0.0066999998 3:0.0066999998 4:0.00089999998 5:0.73110002 6:0.0024999999 7:0.017999999 8:0.00089999998 9:0.00089999998 10:0.98199999 11:0.99330002 12:0.0066999998 13:0.5 14:0.047400001 15:0.00089999998 16:0.0066999998 17:0.1192 18:0.1192 19:0.1192 20:0.9526 #
-4.2793839103288719982742804859299 1:0.017999999 2:0.017999999 3:0.99970001 4:0.1192 5:0.99330002 6:0.047400001 7:0.017999999 8:0.047400001 9:0.047400001 10:0.0024999999 11:0.0024999999 12:0.047400001 13:0.0066999998 14:0.0024999999 15:0.0066999998 16:0.1192 17:0.047400001 18:0.00089999998 19:0.0066999998 20:0.0024999999 #
4.2793839103288719982742804859299 1:0.047400001 2:0.5 3:0.9526 4:0.99330002 5:0.0066999998 6:0.88080001 7:0.98199999 8:0.26890001 9:0.1192 10:0.0066999998 11:0.0066999998 12:0.73110002 13:0.017999999 14:0.0066999998 15:0.047400001 16:0.26890001 17:0.1192 18:0.0066999998 19:0.017999999 20:0.017999999 #
-4.2793839103288719982742804859299 1:0.017999999 2:0.047400001 3:0.017999999 4:0.017999999 5:0.0066999998 6:0.99330002 7:0.88080001 8:0.0066999998 9:0.26890001 10:0.26890001 11:0.99330002 12:0.047400001 13:0.26890001 14:0.047400001 15:0.0066999998 16:0.017999999 17:0.017999999 18:0.0066999998 19:0.017999999 20:0.047400001 #
4.2793839103288719982742804859299 1:0.1192 2:0.0024999999 3:0.0024999999 4:0.0066999998 5:0.73110002 6:0.0024999999 7:0.0024999999 8:0.0066999998 9:0.0024999999 10:0.9975 11:0.98199999 12:0.0024999999 13:0.98199999 14:0.1192 15:0.0024999999 16:0.017999999 17:0.017999999 18:0.0024999999 19:0.017999999 20:0.73110002 #
-4.2793839103288719982742804859299 1:0.1192 2:0.017999999 3:0.98199999 4:0.047400001 5:0.88080001 6:0.047400001 7:0.017999999 8:0.017999999 9:0.017999999 10:0.0024999999 11:0.0024999999 12:0.017999999 13:0.0066999998 14:0.0024999999 15:0.017999999 16:0.99910003 17:0.1192 18:0.0024999999 19:0.0066999998 20:0.0066999998 #
4.2793839103288719982742804859299 1:0.26890001 2:0.73110002 3:0.73110002 4:0.9526 5:0.0066999998 6:0.88080001 7:0.98199999 8:0.047400001 9:0.1192 10:0.0066999998 11:0.017999999 12:0.88080001 13:0.017999999 14:0.0066999998 15:0.047400001 16:0.26890001 17:0.1192 18:0.0066999998 19:0.017999999 20:0.017999999 #
-4.2793839103288719982742804859299 1:0.017999999 2:0.26890001 3:0.017999999 4:0.0066999998 5:0.0066999998 6:0.98199999 7:0.73110002 8:0.0024999999 9:0.1192 10:0.1192 11:0.99330002 12:0.047400001 13:0.26890001 14:0.047400001 15:0.0066999998 16:0.017999999 17:0.017999999 18:0.0066999998 19:0.017999999 20:0.1192 #
4.2793839103288719982742804859299 1:0.047400001 2:0.5 3:0.99330002 4:0.9526 5:0.0066999998 6:0.5 7:0.9526 8:0.047400001 9:0.26890001 10:0.0066999998 11:0.0066999998 12:0.88080001 13:0.017999999 14:0.0024999999 15:0.017999999 16:0.26890001 17:0.26890001 18:0.0024999999 19:0.017999999 20:0.0066999998 #
-4.2793839103288719982742804859299 1:0.047400001 2:0.017999999 3:0.0066999998 4:0.0066999998 5:0.0066999998 6:0.047400001 7:0.88080001 8:0.00089999998 9:0.0066999998 10:0.73110002 11:0.1192 12:0.5 13:0.047400001 14:0.0066999998 15:0.0024999999 16:0.0066999998 17:0.017999999 18:0.00089999998 19:0.0066999998 20:0.99910003 #
